{"learner":{"attributes":{"scikit_learn":"{\"_estimator_type\": \"regressor\"}"},"feature_names":["surface_hard","surface_clay","surface_grass","surface_carpet","is_best_of_5","round_ordinal","is_atp","player_rank","opp_rank","rank_delta","rank_ratio","log_rank","log_opp_rank","days_rest","matches_L14D","is_b2b","h2h_win_rate","h2h_avg_games","career_win_pct_vs_top20","career_win_pct_vs_top50","career_win_pct_vs_top100","career_matches","is_early_career","opp_aces_hard_L10","opp_aces_clay_L10","opp_aces_grass_L10","opp_double_faults_hard_L10","opp_double_faults_clay_L10","opp_double_faults_grass_L10","opp_total_games_hard_L10","opp_total_games_clay_L10","opp_total_games_grass_L10","opp_games_won_hard_L10","opp_games_won_clay_L10","opp_games_won_grass_L10","opp_bp_won_hard_L10","opp_bp_won_clay_L10","opp_bp_won_grass_L10","total_games_L5","total_games_L20","total_games_Season","games_won_L5","games_won_L20","games_won_Season","total_sets_L5","total_sets_L20","total_sets_Season","aces_L5","aces_L20","aces_Season","bp_won_L5","bp_won_L20","bp_won_Season","total_tiebreaks_L5","total_tiebreaks_L20","total_tiebreaks_Season","double_faults_L5","double_faults_L20","double_faults_Season","won_match_L5","won_match_L20","won_match_Season","sets_won_L5","sets_won_L20","sets_won_Season","bp_faced_L5","bp_faced_L20","bp_faced_Season","svpt_L5","svpt_L20","svpt_Season","svc_games_L5","svc_games_L20","svc_games_Season","aces_hard_L10","aces_clay_L10","aces_grass_L10","double_faults_hard_L10","double_faults_clay_L10","double_faults_grass_L10","total_games_hard_L10","total_games_clay_L10","total_games_grass_L10","games_won_hard_L10","games_won_clay_L10","games_won_grass_L10","bp_won_hard_L10","bp_won_clay_L10","bp_won_grass_L10","opp_total_games_L5","opp_total_games_L20","opp_games_won_L5","opp_games_won_L20","opp_aces_L5","opp_aces_L20","opp_double_faults_L5","opp_double_faults_L20","opp_bp_won_L5","opp_bp_won_L20","opp_bp_faced_L5","opp_bp_faced_L20"],"feature_types":["int","int","int","int","int","float","int","float","float","float","float","float","float","float","int","int","float","float","float","float","float","int","int","float","float","float","float","float","float","float","float","float","float","float","float","float","float","float","float","float","float","float","float","float","float","float","float","float","float","float","float","float","float","float","float","float","float","float","float","float","float","float","float","float","float","float","float","float","float","float","float","float","float","float","float","float","float","float","float","float","float","float","float","float","float","float","float","float","float","float","float","float","float","float","float","float","float","float","float","float","float"],"gradient_booster":{"model":{"cats":{"enc":[],"feature_segments":[],"sorted_idx":[]},"gbtree_model_param":{"num_parallel_tree":"1","num_trees":"400"},"iteration_indptr":[0,1,2,3,4,5,6,7,8,9,10,11,12,13,14,15,16,17,18,19,20,21,22,23,24,25,26,27,28,29,30,31,32,33,34,35,36,37,38,39,40,41,42,43,44,45,46,47,48,49,50,51,52,53,54,55,56,57,58,59,60,61,62,63,64,65,66,67,68,69,70,71,72,73,74,75,76,77,78,79,80,81,82,83,84,85,86,87,88,89,90,91,92,93,94,95,96,97,98,99,100,101,102,103,104,105,106,107,108,109,110,111,112,113,114,115,116,117,118,119,120,121,122,123,124,125,126,127,128,129,130,131,132,133,134,135,136,137,138,139,140,141,142,143,144,145,146,147,148,149,150,151,152,153,154,155,156,157,158,159,160,161,162,163,164,165,166,167,168,169,170,171,172,173,174,175,176,177,178,179,180,181,182,183,184,185,186,187,188,189,190,191,192,193,194,195,196,197,198,199,200,201,202,203,204,205,206,207,208,209,210,211,212,213,214,215,216,217,218,219,220,221,222,223,224,225,226,227,228,229,230,231,232,233,234,235,236,237,238,239,240,241,242,243,244,245,246,247,248,249,250,251,252,253,254,255,256,257,258,259,260,261,262,263,264,265,266,267,268,269,270,271,272,273,274,275,276,277,278,279,280,281,282,283,284,285,286,287,288,289,290,291,292,293,294,295,296,297,298,299,300,301,302,303,304,305,306,307,308,309,310,311,312,313,314,315,316,317,318,319,320,321,322,323,324,325,326,327,328,329,330,331,332,333,334,335,336,337,338,339,340,341,342,343,344,345,346,347,348,349,350,351,352,353,354,355,356,357,358,359,360,361,362,363,364,365,366,367,368,369,370,371,372,373,374,375,376,377,378,379,380,381,382,383,384,385,386,387,388,389,390,391,392,393,394,395,396,397,398,399,400],"tree_info":[0,0,0,0,0,0,0,0,0,0,0,0,0,0,0,0,0,0,0,0,0,0,0,0,0,0,0,0,0,0,0,0,0,0,0,0,0,0,0,0,0,0,0,0,0,0,0,0,0,0,0,0,0,0,0,0,0,0,0,0,0,0,0,0,0,0,0,0,0,0,0,0,0,0,0,0,0,0,0,0,0,0,0,0,0,0,0,0,0,0,0,0,0,0,0,0,0,0,0,0,0,0,0,0,0,0,0,0,0,0,0,0,0,0,0,0,0,0,0,0,0,0,0,0,0,0,0,0,0,0,0,0,0,0,0,0,0,0,0,0,0,0,0,0,0,0,0,0,0,0,0,0,0,0,0,0,0,0,0,0,0,0,0,0,0,0,0,0,0,0,0,0,0,0,0,0,0,0,0,0,0,0,0,0,0,0,0,0,0,0,0,0,0,0,0,0,0,0,0,0,0,0,0,0,0,0,0,0,0,0,0,0,0,0,0,0,0,0,0,0,0,0,0,0,0,0,0,0,0,0,0,0,0,0,0,0,0,0,0,0,0,0,0,0,0,0,0,0,0,0,0,0,0,0,0,0,0,0,0,0,0,0,0,0,0,0,0,0,0,0,0,0,0,0,0,0,0,0,0,0,0,0,0,0,0,0,0,0,0,0,0,0,0,0,0,0,0,0,0,0,0,0,0,0,0,0,0,0,0,0,0,0,0,0,0,0,0,0,0,0,0,0,0,0,0,0,0,0,0,0,0,0,0,0,0,0,0,0,0,0,0,0,0,0,0,0,0,0,0,0,0,0,0,0,0,0,0,0,0,0,0,0,0,0,0,0,0,0,0,0,0,0,0,0,0,0,0,0,0,0,0,0,0,0,0,0,0,0,0,0,0,0,0,0,0,0,0,0,0,0],"trees":[{"base_weights":[1.4813399E-4,-4.0299395E-1,1.4339916E0,-6.733244E-1,2.3927751E-1,1.0647526E0,3.2865312E0,-9.605846E-1,-3.153218E-1,-5.9570346E-2,1.1177578E0,7.351829E-1,2.184712E0,1.8789607E0,4.7312245E0,-6.426241E-1,-1.130949E0,1.9327533E-1,-4.7493094E-1,-3.4192592E-1,4.29116E-1,1.1081787E0,1.9187651E0,5.5905503E-1,1.4706329E0,2.167131E0,1.56122E0,1.8051057E0,8.9059105E0,3.4780793E0,5.6449857E0,-4.060202E-2,-1.8844636E-2,-6.2992185E-2,-3.8936354E-2,-1.9218626E-3,6.857783E-2,-2.9018288E-2,1.3957001E-2,1.1441353E-2,-2.9413445E-2,1.0990023E-2,6.490838E-2,4.6173688E-2,1.2087857E-1,5.7377603E-2,1.3393029E-2,5.2310266E-2,1.00337915E-1,7.445881E-2,1.3418037E-1,8.625191E-2,2.9746196E-1,9.382116E-2,4.614702E-1,2.4031137E-1,1.4350873E-1,5.126257E-1,2.5506553E-1],"categories":[],"categories_nodes":[],"categories_segments":[],"categories_sizes":[],"default_left":[0,0,0,0,0,0,0,0,0,0,0,0,0,0,0,0,0,0,0,0,0,0,0,0,0,0,0,0,0,0,0,0,0,0,0,0,0,0,0,0,0,0,0,0,0,0,0,0,0,0,0,0,0,0,0,0,0,0,0],"id":0,"left_children":[1,3,5,7,9,11,13,15,17,19,21,23,25,27,29,31,33,35,37,39,41,43,-1,45,47,49,-1,51,53,55,57,-1,-1,-1,-1,-1,-1,-1,-1,-1,-1,-1,-1,-1,-1,-1,-1,-1,-1,-1,-1,-1,-1,-1,-1,-1,-1,-1,-1],"loss_changes":[4.610544E5,1.0809427E5,1.1973075E5,4.505917E4,4.841579E4,5.3870375E4,5.9145188E4,1.3167297E4,1.5834459E4,1.8987605E4,1.6660316E4,1.4606566E4,1.6871125E4,7.6304766E3,1.6417031E4,3.817746E3,7.184797E3,1.2721128E4,1.1804191E4,1.2262826E4,9.166171E3,1.1316316E4,0E0,1.5591209E4,4.955379E3,1.1608219E4,0E0,4.8280977E3,3.294912E2,4.8749688E3,2.0737625E4,0E0,0E0,0E0,0E0,0E0,0E0,0E0,0E0,0E0,0E0,0E0,0E0,0E0,0E0,0E0,0E0,0E0,0E0,0E0,0E0,0E0,0E0,0E0,0E0,0E0,0E0,0E0,0E0],"parents":[2147483647,0,0,1,1,2,2,3,3,4,4,5,5,6,6,7,7,8,8,9,9,10,10,11,11,12,12,13,13,14,14,15,15,16,16,17,17,18,18,19,19,20,20,21,21,23,23,24,24,25,25,27,27,28,28,29,29,30,30],"right_children":[2,4,6,8,10,12,14,16,18,20,22,24,26,28,30,32,34,36,38,40,42,44,-1,46,48,50,-1,52,54,56,58,-1,-1,-1,-1,-1,-1,-1,-1,-1,-1,-1,-1,-1,-1,-1,-1,-1,-1,-1,-1,-1,-1,-1,-1,-1,-1,-1,-1],"split_conditions":[3.65E0,2.8E1,6.25E0,2.6E0,3.2E0,2.8924906E1,2.4368422E1,2.2933332E1,6.72E1,1E0,9E0,5.05E0,1.8E1,7.75E0,5.7E0,2.25E0,2.45E0,4.75E0,1E0,7.435714E1,4.229787E1,4.033557E1,1.9187651E0,7.15E1,2.1939758E1,2.3E1,1.56122E0,1.16E1,7.9E0,1.3666667E1,5.65E0,-4.060202E-2,-1.8844636E-2,-6.2992185E-2,-3.8936354E-2,-1.9218626E-3,6.857783E-2,-2.9018288E-2,1.3957001E-2,1.1441353E-2,-2.9413445E-2,1.0990023E-2,6.490838E-2,4.6173688E-2,1.2087857E-1,5.7377603E-2,1.3393029E-2,5.2310266E-2,1.00337915E-1,7.445881E-2,1.3418037E-1,8.625191E-2,2.9746196E-1,9.382116E-2,4.614702E-1,2.4031137E-1,1.4350873E-1,5.126257E-1,2.5506553E-1],"split_indices":[57,17,56,56,56,17,17,40,69,4,97,57,97,96,57,57,57,56,4,70,17,17,0,70,17,8,0,56,100,71,67,0,0,0,0,0,0,0,0,0,0,0,0,0,0,0,0,0,0,0,0,0,0,0,0,0,0,0,0],"split_type":[0,0,0,0,0,0,0,0,0,0,0,0,0,0,0,0,0,0,0,0,0,0,0,0,0,0,0,0,0,0,0,0,0,0,0,0,0,0,0,0,0,0,0,0,0,0,0,0,0,0,0,0,0,0,0,0,0,0,0],"sum_hessian":[7.97611E5,6.22569E5,1.75042E5,4.38152E5,1.84417E5,1.45953E5,2.9089E4,2.43093E5,1.95059E5,1.37606E5,4.6811E4,1.1277E5,3.3183E4,1.4735E4,1.4354E4,8.4811E4,1.58282E5,4.6592E4,1.48467E5,8.7215E4,5.0391E4,4.68E4,1.1E1,9.0983E4,2.1787E4,3.3164E4,1.9E1,1.4583E4,1.52E2,6.055E3,8.299E3,5.179E4,3.3021E4,1.15875E5,4.2407E4,3.8936E4,7.656E3,1.30255E5,1.8212E4,2.6294E4,6.0921E4,4.0611E4,9.78E3,4.1016E4,5.784E3,3.0116E4,6.0867E4,1.2162E4,9.625E3,1.4342E4,1.8822E4,1.4308E4,2.75E2,7E0,1.45E2,1.899E3,4.156E3,8.74E2,7.425E3],"tree_param":{"num_deleted":"0","num_feature":"101","num_nodes":"59","size_leaf_vector":"1"}},{"base_weights":[1.6534443E-3,-3.9102957E-1,1.3422201E0,-6.424205E-1,1.3727546E-1,9.7022206E-1,3.0846877E0,-8.6859643E-1,-1.223947E-1,-2.5792953E-1,6.9569767E-1,5.780642E-1,2.0752544E0,1.789399E0,4.416926E0,-7.6815116E-1,-1.3421382E0,-2.4262238E-1,1.141105E0,-5.041478E-1,2.2522251E-1,1.6744577E0,5.948361E-1,1.7617077E-1,1.1185782E0,2.0607777E0,1.443852E0,1.6214565E0,3.6673052E0,4.072009E0,7.428447E0,-1.779104E-2,-4.503319E-2,-8.146381E-2,-5.428925E-2,-1.2339375E-2,1.8436594E0,4.695035E-2,1.5367536E-1,6.4740394E-4,-3.1094033E-2,1.0422196E-1,5.958769E-3,1.3487215E-1,5.7377156E-2,2.246773E-2,5.8461506E-2,5.9722718E-2,2.5505724E-3,3.4531526E-2,6.88821E-2,7.6145776E-2,1.2873009E-1,7.837397E-2,3.1875238E-1,1.4369182E-1,3.459271E-1,2.1780275E-1,7.389423E-2,4.8432446E-1,2.5434384E-1],"categories":[],"categories_nodes":[],"categories_segments":[],"categories_sizes":[],"default_left":[0,0,0,0,0,0,0,0,0,0,0,0,0,0,0,0,0,0,0,0,0,0,0,0,0,0,0,0,0,0,0,0,0,0,0,0,0,0,0,0,0,0,0,0,0,0,0,0,0,0,0,0,0,0,0,0,0,0,0,0,0],"id":1,"left_children":[1,3,5,7,9,11,13,15,17,19,21,23,25,27,29,31,33,35,37,39,41,43,45,47,49,51,-1,53,55,57,59,-1,-1,-1,-1,-1,-1,-1,-1,-1,-1,-1,-1,-1,-1,-1,-1,-1,-1,-1,-1,-1,-1,-1,-1,-1,-1,-1,-1,-1,-1],"loss_changes":[4.20351E5,8.202452E4,1.1726153E5,4.921961E4,4.394625E4,6.460367E4,5.4913156E4,1.3870281E4,1.9268453E4,1.3871693E4,8.1454883E3,2.3902688E4,1.50885E4,5.083449E3,1.6265125E4,1.3145734E4,3.7544297E3,1.7910584E4,4.300796E3,4.7025566E3,7.7607188E3,4.151871E3,6.251217E3,8.043292E3,5.201211E3,1.0781969E4,0E0,3.7907695E3,3.3947344E3,1.0367078E4,8.467195E3,0E0,0E0,0E0,0E0,0E0,0E0,0E0,0E0,0E0,0E0,0E0,0E0,0E0,0E0,0E0,0E0,0E0,0E0,0E0,0E0,0E0,0E0,0E0,0E0,0E0,0E0,0E0,0E0,0E0,0E0],"parents":[2147483647,0,0,1,1,2,2,3,3,4,4,5,5,6,6,7,7,8,8,9,9,10,10,11,11,12,12,13,13,14,14,15,15,16,16,17,17,18,18,19,19,20,20,21,21,22,22,23,23,24,24,25,25,27,27,28,28,29,29,30,30],"right_children":[2,4,6,8,10,12,14,16,18,20,22,24,26,28,30,32,34,36,38,40,42,44,46,48,50,52,-1,54,56,58,60,-1,-1,-1,-1,-1,-1,-1,-1,-1,-1,-1,-1,-1,-1,-1,-1,-1,-1,-1,-1,-1,-1,-1,-1,-1,-1,-1,-1,-1,-1],"split_conditions":[4E0,2.8E0,6.25E0,2.8E1,2.5E1,2.8448277E1,2.4368422E1,1E0,4.229787E1,3.5833333E0,2E0,4.1E0,1.6666666E1,8.3E0,1.4375E1,2.05E1,2.0578314E1,8.6E0,3.3333333E0,1.04375E1,2.05E1,2.4545455E0,3.85E0,2.08E1,1.975E1,3.75E0,1.443852E0,7.75E0,5.7777777E0,3.88E1,5.65E0,-1.779104E-2,-4.503319E-2,-8.146381E-2,-5.428925E-2,-1.2339375E-2,1.8436594E0,4.695035E-2,1.5367536E-1,6.4740394E-4,-3.1094033E-2,1.0422196E-1,5.958769E-3,1.3487215E-1,5.7377156E-2,2.246773E-2,5.8461506E-2,5.9722718E-2,2.5505724E-3,3.4531526E-2,6.88821E-2,7.6145776E-2,1.2873009E-1,7.837397E-2,3.1875238E-1,1.4369182E-1,3.459271E-1,2.1780275E-1,7.389423E-2,4.8432446E-1,2.5434384E-1],"split_indices":[56,57,56,17,17,17,17,16,17,57,5,57,99,77,49,39,17,97,56,72,39,45,57,38,17,57,0,96,79,38,67,0,0,0,0,0,0,0,0,0,0,0,0,0,0,0,0,0,0,0,0,0,0,0,0,0,0,0,0,0,0],"split_type":[0,0,0,0,0,0,0,0,0,0,0,0,0,0,0,0,0,0,0,0,0,0,0,0,0,0,0,0,0,0,0,0,0,0,0,0,0,0,0,0,0,0,0,0,0,0,0,0,0,0,0,0,0,0,0,0,0,0,0,0,0],"sum_hessian":[7.9851E5,6.17601E5,1.80909E5,4.18473E5,1.99128E5,1.49083E5,3.1826E4,2.91632E5,1.26841E5,1.16605E5,8.2523E4,1.10035E5,3.9048E4,1.6138E4,1.5688E4,2.406E5,5.1032E4,1.15821E5,1.102E4,7.7242E4,3.9363E4,7.708E3,7.4815E4,6.3111E4,4.6924E4,3.9028E4,2E1,1.4815E4,1.323E3,1.4078E4,1.61E3,5.8518E4,1.82082E5,2.4068E4,2.6964E4,1.15809E5,1.2E1,9.978E3,1.042E3,1.4325E4,6.2917E4,2.123E3,3.724E4,2.619E3,5.089E3,5.9697E4,1.5118E4,6.907E3,5.6204E4,1.7696E4,2.9228E4,1.907E4,1.9958E4,1.465E4,1.65E2,1.065E3,2.58E2,1.2688E4,1.39E3,8.18E2,7.92E2],"tree_param":{"num_deleted":"0","num_feature":"101","num_nodes":"61","size_leaf_vector":"1"}},{"base_weights":[6.1284524E-4,-5.1561797E-1,1.0320357E0,-7.632312E-1,6.663862E-2,7.734434E-1,2.646255E0,-1.0396187E0,-4.712015E-1,-1.7982183E-1,6.7474234E-1,3.8345626E-1,1.3838414E0,1.5522665E0,3.9494493E0,-1.8718256E-1,-1.0858753E0,-7.1064323E-1,-1.4498352E-1,-2.8541204E-1,9.3119913E-1,4.6421233E-1,1.5825602E0,7.392906E-1,-4.8636768E-2,8.735191E-1,1.7969118E0,-3.3908978E-1,1.8281077E0,8.490214E0,3.6754563E0,-1.795291E-2,1.1759144E-1,-5.719189E-2,-3.0673722E-2,-2.971356E-2,-5.8392026E-2,7.375777E-2,-1.0884609E-2,-1.7632775E-2,3.9087478E-2,3.6271937E-2,1.4942849E-1,3.993654E-2,1.8070134E-3,9.01671E-3,1.00757554E-1,2.8309032E-2,7.27843E-2,4.1628727E-3,-3.7620846E-2,3.8436446E-2,1.23531096E-1,6.976665E-1,8.8735335E-2,8.373731E-3,-1.2998185E-1,8.508632E-2,3.2985505E-1,3.1605956E-1,6.5312284E-1,2.053757E-1,8.830651E-2],"categories":[],"categories_nodes":[],"categories_segments":[],"categories_sizes":[],"default_left":[0,0,0,0,0,0,0,0,0,0,0,0,0,0,0,0,0,0,0,0,0,0,0,0,0,0,0,0,0,0,0,0,0,0,0,0,0,0,0,0,0,0,0,0,0,0,0,0,0,0,0,0,0,0,0,0,0,0,0,0,0,0,0],"id":2,"left_children":[1,3,5,7,9,11,13,15,17,19,21,23,25,27,29,31,33,35,37,39,41,43,45,47,49,51,53,55,57,59,61,-1,-1,-1,-1,-1,-1,-1,-1,-1,-1,-1,-1,-1,-1,-1,-1,-1,-1,-1,-1,-1,-1,-1,-1,-1,-1,-1,-1,-1,-1,-1,-1],"loss_changes":[4.2505084E5,7.670294E4,1.1114734E5,3.0127547E4,2.3791244E4,5.4633547E4,5.240986E4,7.5613906E3,1.4177047E4,1.3251873E4,8.749051E3,2.1531746E4,1.8858562E4,1.0429309E4,2.0841719E4,4.308729E3,4.9798594E3,5.568254E3,9.050743E3,7.402742E3,4.147742E3,5.321841E3,5.227008E3,9.522969E3,5.870724E3,6.6965566E3,1.33208125E4,2.9149902E3,1.0502238E4,9.376594E3,1.30468125E4,0E0,0E0,0E0,0E0,0E0,0E0,0E0,0E0,0E0,0E0,0E0,0E0,0E0,0E0,0E0,0E0,0E0,0E0,0E0,0E0,0E0,0E0,0E0,0E0,0E0,0E0,0E0,0E0,0E0,0E0,0E0,0E0],"parents":[2147483647,0,0,1,1,2,2,3,3,4,4,5,5,6,6,7,7,8,8,9,9,10,10,11,11,12,12,13,13,14,14,15,15,16,16,17,17,18,18,19,19,20,20,21,21,22,22,23,23,24,24,25,25,26,26,27,27,28,28,29,29,30,30],"right_children":[2,4,6,8,10,12,14,16,18,20,22,24,26,28,30,32,34,36,38,40,42,44,46,48,50,52,54,56,58,60,62,-1,-1,-1,-1,-1,-1,-1,-1,-1,-1,-1,-1,-1,-1,-1,-1,-1,-1,-1,-1,-1,-1,-1,-1,-1,-1,-1,-1,-1,-1,-1,-1],"split_conditions":[3.2539682E0,2.8E1,5.277512E0,2.4655173E0,2.65E0,2.5262295E1,2.4719625E1,2E0,2.2027027E1,4.229787E1,3.8E1,7.529412E1,3.65E0,8.5E0,5.65E0,2.6814816E1,1E0,1E0,6.713333E1,2.6E0,2.9125E1,1.28E1,1E0,5E0,1E0,4.033557E1,2E-1,1.5E0,1.5166667E1,1.74E1,1.4859155E1,-1.795291E-2,1.1759144E-1,-5.719189E-2,-3.0673722E-2,-2.971356E-2,-5.8392026E-2,7.375777E-2,-1.0884609E-2,-1.7632775E-2,3.9087478E-2,3.6271937E-2,1.4942849E-1,3.993654E-2,1.8070134E-3,9.01671E-3,1.00757554E-1,2.8309032E-2,7.27843E-2,4.1628727E-3,-3.7620846E-2,3.8436446E-2,1.23531096E-1,6.976665E-1,8.8735335E-2,8.373731E-3,-1.2998185E-1,8.508632E-2,3.2985505E-1,3.1605956E-1,6.5312284E-1,2.053757E-1,8.830651E-2],"split_indices":[58,17,58,58,57,17,17,46,17,17,17,70,57,71,67,17,4,16,70,79,82,72,4,77,16,17,62,62,76,47,43,0,0,0,0,0,0,0,0,0,0,0,0,0,0,0,0,0,0,0,0,0,0,0,0,0,0,0,0,0,0,0,0],"split_type":[0,0,0,0,0,0,0,0,0,0,0,0,0,0,0,0,0,0,0,0,0,0,0,0,0,0,0,0,0,0,0,0,0,0,0,0,0,0,0,0,0,0,0,0,0,0,0,0,0,0,0,0,0,0,0,0,0,0,0,0,0,0,0],"sum_hessian":[7.98287E5,5.32013E5,2.66274E5,3.73273E5,1.5874E5,2.29509E5,3.6765E4,1.91771E5,1.81502E5,1.12959E5,4.5781E4,1.40039E5,8.947E4,1.9988E4,1.6777E4,9.871E3,1.819E5,1.04672E5,7.683E4,1.03156E5,9.803E3,3.7164E4,8.617E3,7.6796E4,6.3243E4,4.0025E4,4.9445E4,2.544E3,1.7444E4,9.53E2,1.5824E4,9.246E3,6.25E2,1.62019E5,1.9881E4,8.3437E4,2.1235E4,3.299E3,7.3531E4,9.7042E4,6.114E3,8.913E3,8.9E2,2.0861E4,1.6303E4,2.032E3,6.585E3,6.1852E4,1.4944E4,5.3262E4,9.981E3,3.7562E4,2.463E3,8.9E1,4.9356E4,2.079E3,4.65E2,1.6995E4,4.49E2,6.48E2,3.05E2,1.2903E4,2.921E3],"tree_param":{"num_deleted":"0","num_feature":"101","num_nodes":"63","size_leaf_vector":"1"}},{"base_weights":[1.6124026E-3,-4.89809E-1,9.8574615E-1,-7.2252035E-1,5.7552513E-2,6.909366E-1,2.5938692E0,-9.779139E-1,-4.3950292E-1,-2.6273638E-1,5.586017E-1,3.76133E-1,1.3651054E0,1.5523183E0,3.8979537E0,-4.0119305E-1,-1.034365E0,-7.009066E-1,-1.6665505E-1,-5.421229E-1,2.3070827E-1,5.525425E-1,1.7300704E0,8.6984336E-1,1.8428242E-1,8.46416E-1,2.0183055E0,1.2529528E0,2.5574114E0,3.0446417E0,5.185454E0,-2.3620302E-2,9.3574755E-2,-6.0086876E-2,-4.3187194E-2,-2.960113E-2,-5.6616582E-2,5.856809E-2,-1.1491989E-2,1.2556649E-2,-3.71782E-2,-3.7006785E-3,3.7393086E-2,2.074713E-2,8.178491E-2,3.1505246E-2,7.443947E-2,1.0542249E-3,3.4212E-2,3.89227E-2,1.7512046E-1,1.2979779E-1,7.373223E-2,7.139284E-2,-1.3274868E-2,1.141995E-1,2.8779504E-1,1.0972341E-1,1.8334062E-1,2.104607E-1,3.5206577E-1],"categories":[],"categories_nodes":[],"categories_segments":[],"categories_sizes":[],"default_left":[0,0,0,0,0,0,0,0,0,0,0,0,0,0,0,0,0,0,0,0,0,0,0,0,0,0,0,0,0,0,0,0,0,0,0,0,0,0,0,0,0,0,0,0,0,0,0,0,0,0,0,0,0,0,0,0,0,0,0,0,0],"id":3,"left_children":[1,3,5,7,9,11,13,15,17,19,21,23,25,27,29,31,33,35,37,39,41,43,-1,45,47,49,51,53,55,57,59,-1,-1,-1,-1,-1,-1,-1,-1,-1,-1,-1,-1,-1,-1,-1,-1,-1,-1,-1,-1,-1,-1,-1,-1,-1,-1,-1,-1,-1,-1],"loss_changes":[3.8595794E5,6.779894E4,1.2600389E5,2.6995016E4,2.5482389E4,4.7668477E4,5.5921562E4,6.3909688E3,1.2635594E4,1.3354412E4,1.2749887E4,1.4502576E4,2.4221422E4,6.884992E3,2.0069812E4,2.8338386E3,5.105297E3,4.2493906E3,7.328718E3,9.883355E3,5.518695E3,9.226463E3,0E0,6.3568555E3,8.996906E3,7.190576E3,9.933422E3,4.68591E3,4.5799883E3,5.808789E3,1.3169766E4,0E0,0E0,0E0,0E0,0E0,0E0,0E0,0E0,0E0,0E0,0E0,0E0,0E0,0E0,0E0,0E0,0E0,0E0,0E0,0E0,0E0,0E0,0E0,0E0,0E0,0E0,0E0,0E0,0E0,0E0],"parents":[2147483647,0,0,1,1,2,2,3,3,4,4,5,5,6,6,7,7,8,8,9,9,10,10,11,11,12,12,13,13,14,14,15,15,16,16,17,17,18,18,19,19,20,20,21,21,23,23,24,24,25,25,26,26,27,27,28,28,29,29,30,30],"right_children":[2,4,6,8,10,12,14,16,18,20,22,24,26,28,30,32,34,36,38,40,42,44,-1,46,48,50,52,54,56,58,60,-1,-1,-1,-1,-1,-1,-1,-1,-1,-1,-1,-1,-1,-1,-1,-1,-1,-1,-1,-1,-1,-1,-1,-1,-1,-1,-1,-1,-1,-1],"split_conditions":[3.2539682E0,2.8E1,6E0,2.4824562E0,2.6E0,2.6947369E1,2.4937246E1,2.857143E-1,2.1368422E1,1E0,9E0,7.090588E1,4E0,6.3333335E0,5.7777777E0,1.88E1,2E0,1E0,6.713333E1,2.24375E1,3.7056725E1,4.125688E1,1.7300704E0,4.3195877E0,4.6E0,4.5138462E1,2.2833334E1,7.55E0,1.5166667E1,1.651E3,3.2E1,-2.3620302E-2,9.3574755E-2,-6.0086876E-2,-4.3187194E-2,-2.960113E-2,-5.6616582E-2,5.856809E-2,-1.1491989E-2,1.2556649E-2,-3.71782E-2,-3.7006785E-3,3.7393086E-2,2.074713E-2,8.178491E-2,3.1505246E-2,7.443947E-2,1.0542249E-3,3.4212E-2,3.89227E-2,1.7512046E-1,1.2979779E-1,7.373223E-2,7.139284E-2,-1.3274868E-2,1.141995E-1,2.8779504E-1,1.0972341E-1,1.8334062E-1,2.104607E-1,3.5206577E-1],"split_indices":[58,17,56,58,56,17,17,61,17,4,97,70,56,58,58,93,56,16,70,40,17,17,0,58,56,17,80,94,76,21,17,0,0,0,0,0,0,0,0,0,0,0,0,0,0,0,0,0,0,0,0,0,0,0,0,0,0,0,0,0,0],"split_type":[0,0,0,0,0,0,0,0,0,0,0,0,0,0,0,0,0,0,0,0,0,0,0,0,0,0,0,0,0,0,0,0,0,0,0,0,0,0,0,0,0,0,0,0,0,0,0,0,0,0,0,0,0,0,0,0,0,0,0,0,0],"sum_hessian":[7.98051E5,5.32267E5,2.65784E5,3.73481E5,1.58786E5,2.24609E5,4.1175E4,1.9632E5,1.77161E5,9.6866E4,6.192E4,1.53114E5,7.1495E4,2.2893E4,1.8282E4,1.7504E4,1.78816E5,9.0477E4,8.6684E4,6.1848E4,3.5018E4,6.191E4,1E1,4.2847E4,1.10267E5,3.9852E4,3.1643E4,1.7641E4,5.252E3,1.0997E4,7.285E3,1.6973E4,5.31E2,9.0264E4,8.8552E4,7.2246E4,1.8231E4,3.908E3,8.2776E4,1.2525E4,4.9323E4,2.2035E4,1.2983E4,5.4933E4,6.977E3,3.0886E4,1.1961E4,8.3132E4,2.7135E4,3.8859E4,9.93E2,1.534E4,1.6303E4,1.5819E4,1.822E3,4.84E3,4.12E2,4.649E3,6.348E3,4.776E3,2.509E3],"tree_param":{"num_deleted":"0","num_feature":"101","num_nodes":"61","size_leaf_vector":"1"}},{"base_weights":[-9.6870365E-4,-4.6476185E-1,9.2491865E-1,-6.880954E-1,6.1704297E-2,6.6844547E-1,2.5834076E0,-9.381974E-1,-4.2314667E-1,-2.3932342E-1,5.3307456E-1,4.28527E-1,1.4699069E0,1.5219909E0,3.791761E0,-1.419537E-1,-9.8167676E-1,-6.379276E-1,-1.3080879E-1,-5.0400376E-1,2.268828E-1,5.261156E-1,1.6769142E0,8.3314455E-1,1.7802829E-1,1.0275846E0,2.3112283E0,1.387219E0,3.1834183E0,2.9277704E0,5.015977E0,-1.497318E-2,1.11648835E-1,-5.651776E-2,-4.1101843E-2,-2.6503107E-2,-5.2987505E-2,9.094802E-3,-2.2469388E-2,1.2646307E-2,-3.384408E-2,-2.935727E-3,3.549641E-2,1.979051E-2,7.838068E-2,2.169851E-2,6.1510827E-2,3.8558587E-3,5.199938E-2,4.6591755E-2,1.5952756E-1,1.1428002E-1,1.3436689E0,6.723769E-2,3.0006576E-1,1.1740978E-1,3.083654E-1,1.0045896E-1,1.7002663E-1,4.518971E-1,2.2421853E-1],"categories":[],"categories_nodes":[],"categories_segments":[],"categories_sizes":[],"default_left":[0,0,0,0,0,0,0,0,0,0,0,0,0,0,0,0,0,0,0,0,0,0,0,0,0,0,0,0,0,0,0,0,0,0,0,0,0,0,0,0,0,0,0,0,0,0,0,0,0,0,0,0,0,0,0,0,0,0,0,0,0],"id":4,"left_children":[1,3,5,7,9,11,13,15,17,19,21,23,25,27,29,31,33,35,37,39,41,43,-1,45,47,49,51,53,55,57,59,-1,-1,-1,-1,-1,-1,-1,-1,-1,-1,-1,-1,-1,-1,-1,-1,-1,-1,-1,-1,-1,-1,-1,-1,-1,-1,-1,-1,-1,-1],"loss_changes":[3.4289975E5,6.255372E4,1.13354984E5,2.4752719E4,2.2485912E4,4.438E4,4.5771047E4,6.6523594E3,1.1389375E4,1.1933486E4,1.416407E4,1.8004053E4,1.9785195E4,4.2501562E3,1.7637734E4,3.722896E3,4.323625E3,4.7571367E3,7.653804E3,8.0723525E3,4.8316196E3,8.379178E3,0E0,1.0765E4,9.542784E3,7.2147656E3,1.1468906E4,3.4355938E3,3.5360674E3,4.242883E3,1.47195625E4,0E0,0E0,0E0,0E0,0E0,0E0,0E0,0E0,0E0,0E0,0E0,0E0,0E0,0E0,0E0,0E0,0E0,0E0,0E0,0E0,0E0,0E0,0E0,0E0,0E0,0E0,0E0,0E0,0E0,0E0],"parents":[2147483647,0,0,1,1,2,2,3,3,4,4,5,5,6,6,7,7,8,8,9,9,10,10,11,11,12,12,13,13,14,14,15,15,16,16,17,17,18,18,19,19,20,20,21,21,23,23,24,24,25,25,26,26,27,27,28,28,29,29,30,30],"right_children":[2,4,6,8,10,12,14,16,18,20,22,24,26,28,30,32,34,36,38,40,42,44,-1,46,48,50,52,54,56,58,60,-1,-1,-1,-1,-1,-1,-1,-1,-1,-1,-1,-1,-1,-1,-1,-1,-1,-1,-1,-1,-1,-1,-1,-1,-1,-1,-1,-1,-1,-1],"split_conditions":[3.2539682E0,2.8E1,6.2E0,2.4655173E0,2.6E0,2.9E1,2.4368422E1,2E0,2.2027027E1,1E0,9E0,2.3809524E0,4.3333335E0,8.3E0,5.7777777E0,2.6814816E1,2E0,1E0,2.29E1,2.3650794E0,3.7056725E1,4.125688E1,1.6769142E0,2.0135593E1,5.05E0,4.5138462E1,1.48E1,7.75E0,4.2E0,1.339E3,5.65E0,-1.497318E-2,1.11648835E-1,-5.651776E-2,-4.1101843E-2,-2.6503107E-2,-5.2987505E-2,9.094802E-3,-2.2469388E-2,1.2646307E-2,-3.384408E-2,-2.935727E-3,3.549641E-2,1.979051E-2,7.838068E-2,2.169851E-2,6.1510827E-2,3.8558587E-3,5.199938E-2,4.6591755E-2,1.5952756E-1,1.1428002E-1,1.3436689E0,6.723769E-2,3.0006576E-1,1.1740978E-1,3.083654E-1,1.0045896E-1,1.7002663E-1,4.518971E-1,2.2421853E-1],"split_indices":[58,17,56,58,56,17,17,46,17,4,97,46,56,77,58,17,56,16,80,46,17,17,0,17,57,17,99,96,79,21,67,0,0,0,0,0,0,0,0,0,0,0,0,0,0,0,0,0,0,0,0,0,0,0,0,0,0,0,0,0,0],"split_type":[0,0,0,0,0,0,0,0,0,0,0,0,0,0,0,0,0,0,0,0,0,0,0,0,0,0,0,0,0,0,0,0,0,0,0,0,0,0,0,0,0,0,0,0,0,0,0,0,0,0,0,0,0,0,0,0,0,0,0,0,0],"sum_hessian":[7.98516E5,5.32019E5,2.66497E5,3.73553E5,1.58466E5,2.30806E5,3.5691E4,1.92159E5,1.81394E5,9.6707E4,6.1759E4,1.77633E5,5.3173E4,1.9002E4,1.6689E4,9.95E3,1.82209E5,1.04567E5,7.6827E4,6.1686E4,3.5021E4,6.1747E4,1.2E1,6.7921E4,1.09712E5,3.4852E4,1.8321E4,1.7578E4,1.424E3,9.786E3,6.903E3,9.332E3,6.18E2,9.434E4,8.7869E4,8.3275E4,2.1292E4,3.8771E4,3.8056E4,1.1469E4,5.0217E4,2.2009E4,1.3012E4,5.4882E4,6.865E3,3.3872E4,3.4049E4,9.8215E4,1.1497E4,3.3376E4,1.476E3,1.8303E4,1.8E1,1.7419E4,1.59E2,1.114E3,3.1E2,3.327E3,6.459E3,8.04E2,6.099E3],"tree_param":{"num_deleted":"0","num_feature":"101","num_nodes":"61","size_leaf_vector":"1"}},{"base_weights":[6.9226633E-4,-4.4208533E-1,8.862728E-1,-5.9892654E-1,2.4475335E-1,6.1715466E-1,2.3624423E0,-8.068305E-1,-2.9915068E-1,-5.3105913E-2,8.991642E-1,3.296096E-1,1.2336901E0,1.4276419E0,3.5277975E0,-9.085318E-1,-4.1261128E-1,-5.5323344E-1,5.74699E-2,2.8580913E-1,-4.3566945E-1,-1.5185924E-2,1.3228021E0,7.122403E-1,8.690845E-2,7.638661E-1,1.8229239E0,1.1336507E0,2.3896332E0,2.7594123E0,4.6967626E0,-2.9664848E-2,-5.1009446E-2,1.6774554E-2,-3.0922666E-2,-2.293795E-2,-4.667723E-2,2.6153454E-3,1.5883756E0,9.310379E-3,1.3098149E-1,-2.9777551E-2,1.7768364E-2,2.0227721E-2,-2.4120895E-2,5.388486E-2,1.0692694E-1,1.9006155E-2,5.3922206E-2,-1.216979E-2,1.3345795E-2,4.2776875E-2,-5.237157E-2,6.708684E-1,8.967745E-2,6.270257E-2,-8.062594E-3,1.07981406E-1,2.5701278E-1,9.945514E-2,1.6693102E-1,1.8966703E-1,3.2055804E-1],"categories":[],"categories_nodes":[],"categories_segments":[],"categories_sizes":[],"default_left":[0,0,0,0,0,0,0,0,0,0,0,0,0,0,0,0,0,0,0,0,0,0,0,0,0,0,0,0,0,0,0,0,0,0,0,0,0,0,0,0,0,0,0,0,0,0,0,0,0,0,0,0,0,0,0,0,0,0,0,0,0,0,0],"id":5,"left_children":[1,3,5,7,9,11,13,15,17,19,21,23,25,27,29,31,33,35,37,39,41,43,45,47,49,51,53,55,57,59,61,-1,-1,-1,-1,-1,-1,-1,-1,-1,-1,-1,-1,-1,-1,-1,-1,-1,-1,-1,-1,-1,-1,-1,-1,-1,-1,-1,-1,-1,-1,-1,-1],"loss_changes":[3.126927E5,5.7270797E4,1.05595766E5,2.6974172E4,1.9264893E4,3.9856977E4,4.4644656E4,1.0245719E4,1.6060359E4,8.806412E3,1.1974791E4,1.4238E4,1.9793797E4,6.4296094E3,1.6372453E4,7.1498594E3,8.071207E3,3.7182285E3,1.2068271E4,8.370996E3,4.0354565E3,1.9199834E3,4.221328E3,7.2367188E3,5.5781064E3,6.6071055E3,1.0778102E4,2.7166797E3,3.3558047E3,4.9051406E3,1.1178859E4,0E0,0E0,0E0,0E0,0E0,0E0,0E0,0E0,0E0,0E0,0E0,0E0,0E0,0E0,0E0,0E0,0E0,0E0,0E0,0E0,0E0,0E0,0E0,0E0,0E0,0E0,0E0,0E0,0E0,0E0,0E0,0E0],"parents":[2147483647,0,0,1,1,2,2,3,3,4,4,5,5,6,6,7,7,8,8,9,9,10,10,11,11,12,12,13,13,14,14,15,15,16,16,17,17,18,18,19,19,20,20,21,21,22,22,23,23,24,24,25,25,26,26,27,27,28,28,29,29,30,30],"right_children":[2,4,6,8,10,12,14,16,18,20,22,24,26,28,30,32,34,36,38,40,42,44,46,48,50,52,54,56,58,60,62,-1,-1,-1,-1,-1,-1,-1,-1,-1,-1,-1,-1,-1,-1,-1,-1,-1,-1,-1,-1,-1,-1,-1,-1,-1,-1,-1,-1,-1,-1,-1,-1],"split_conditions":[3.2539682E0,1E0,6E0,2.5617285E0,3.45E1,2.7E1,2.4937246E1,2.9E1,2.35E1,2.5734043E1,2.1111112E0,2.3809524E0,4E0,6.3333335E0,5.7777777E0,1.1448276E1,2.3071428E1,1E0,1.86E1,3.142857E0,2.9230769E0,5.6666665E0,3.05E0,2.6666667E0,3.2E0,3.8888888E0,2E-1,8.4E0,1.5166667E1,1.668E3,3.2E1,-2.9664848E-2,-5.1009446E-2,1.6774554E-2,-3.0922666E-2,-2.293795E-2,-4.667723E-2,2.6153454E-3,1.5883756E0,9.310379E-3,1.3098149E-1,-2.9777551E-2,1.7768364E-2,2.0227721E-2,-2.4120895E-2,5.388486E-2,1.0692694E-1,1.9006155E-2,5.3922206E-2,-1.216979E-2,1.3345795E-2,4.2776875E-2,-5.237157E-2,6.708684E-1,8.967745E-2,6.270257E-2,-8.062594E-3,1.07981406E-1,2.5701278E-1,9.945514E-2,1.6693102E-1,1.8966703E-1,3.2055804E-1],"split_indices":[58,4,56,58,17,17,17,17,17,40,58,46,56,58,58,43,40,16,99,79,58,65,57,47,56,79,62,93,76,21,17,0,0,0,0,0,0,0,0,0,0,0,0,0,0,0,0,0,0,0,0,0,0,0,0,0,0,0,0,0,0,0,0],"split_type":[0,0,0,0,0,0,0,0,0,0,0,0,0,0,0,0,0,0,0,0,0,0,0,0,0,0,0,0,0,0,0,0,0,0,0,0,0,0,0,0,0,0,0,0,0,0,0,0,0,0,0,0,0,0,0,0,0,0,0,0,0,0,0],"sum_hessian":[7.97449E5,5.31638E5,2.65811E5,4.32806E5,9.8832E4,2.24825E5,4.0986E4,2.55563E5,1.77243E5,6.7919E4,3.0913E4,1.5332E5,7.1505E4,2.2744E4,1.8242E4,2.03152E5,5.2411E4,1.03501E5,7.3742E4,3.6014E4,3.1905E4,9.788E3,2.1125E4,5.9505E4,9.3815E4,3.9785E4,3.172E4,1.7422E4,5.322E3,1.1009E4,7.233E3,5.3138E4,1.50014E5,1.1309E4,4.1102E4,8.2908E4,2.0593E4,7.3731E4,1.1E1,3.4541E4,1.473E3,2.6541E4,5.364E3,5.156E3,4.632E3,1.6246E4,4.879E3,3.1206E4,2.8299E4,3.3092E4,6.0723E4,3.7869E4,1.916E3,7.9E1,3.1641E4,1.594E4,1.482E3,4.913E3,4.09E2,4.727E3,6.282E3,4.739E3,2.494E3],"tree_param":{"num_deleted":"0","num_feature":"101","num_nodes":"63","size_leaf_vector":"1"}},{"base_weights":[2.9438279E-5,-4.229906E-1,8.323578E-1,-6.135632E-1,9.289435E-2,6.0145354E-1,2.3443606E0,-8.4079355E-1,-3.6732128E-1,-6.8263315E-2,9.29712E-1,3.862194E-1,1.3244778E0,1.3391412E0,3.3849287E0,-5.075167E-1,-9.263747E-1,-5.502475E-1,-2.041558E-2,-3.5232535E-1,3.4852743E-1,9.115714E-1,1.5353228E0,2.0765078E-1,8.631034E-1,9.262172E-1,2.0907812E0,1.2927508E0,6.4106784E0,2.6107726E0,4.4752135E0,-2.7082665E-2,6.895318E-2,-5.436157E-2,-3.788438E-2,-3.602476E-2,-1.6614063E-2,6.4741746E-2,-4.4259676E-3,1.7772732E-2,-2.7413309E-2,-4.196861E-3,3.6208894E-2,2.8147576E-2,7.689997E-2,2.7454028E-2,4.4162368E-4,2.577565E-2,6.285456E-2,3.9555077E-2,1.15359366E-1,1.0313695E-1,1.2645873E0,3.459586E-2,8.280935E-2,4.003186E-1,-1.6134824E-1,9.277994E-2,1.5499038E-1,4.1176596E-1,1.9998057E-1],"categories":[],"categories_nodes":[],"categories_segments":[],"categories_sizes":[],"default_left":[0,0,0,0,0,0,0,0,0,0,0,0,0,0,0,0,0,0,0,0,0,0,0,0,0,0,0,0,0,0,0,0,0,0,0,0,0,0,0,0,0,0,0,0,0,0,0,0,0,0,0,0,0,0,0,0,0,0,0,0,0],"id":6,"left_children":[1,3,5,7,9,11,13,15,17,19,21,23,25,27,29,31,33,35,37,39,41,43,-1,45,47,49,51,53,55,57,59,-1,-1,-1,-1,-1,-1,-1,-1,-1,-1,-1,-1,-1,-1,-1,-1,-1,-1,-1,-1,-1,-1,-1,-1,-1,-1,-1,-1,-1,-1],"loss_changes":[2.8098638E5,5.202047E4,9.3886484E4,2.1619562E4,1.9249602E4,3.6304727E4,3.7260812E4,5.7309844E3,1.1767609E4,1.4170517E4,1.2419691E4,1.5309148E4,1.6330531E4,4.254746E3,1.4762719E4,2.6450488E3,4.337578E3,4.5051914E3,5.7349375E3,9.871392E3,7.8810054E3,5.029867E3,0E0,8.879172E3,6.706535E3,6.5690312E3,1.1851844E4,3.9204512E3,2.5484248E3,3.7750781E3,1.2961531E4,0E0,0E0,0E0,0E0,0E0,0E0,0E0,0E0,0E0,0E0,0E0,0E0,0E0,0E0,0E0,0E0,0E0,0E0,0E0,0E0,0E0,0E0,0E0,0E0,0E0,0E0,0E0,0E0,0E0,0E0],"parents":[2147483647,0,0,1,1,2,2,3,3,4,4,5,5,6,6,7,7,8,8,9,9,10,10,11,11,12,12,13,13,14,14,15,15,16,16,17,17,18,18,19,19,20,20,21,21,23,23,24,24,25,25,26,26,27,27,28,28,29,29,30,30],"right_children":[2,4,6,8,10,12,14,16,18,20,22,24,26,28,30,32,34,36,38,40,42,44,-1,46,48,50,52,54,56,58,60,-1,-1,-1,-1,-1,-1,-1,-1,-1,-1,-1,-1,-1,-1,-1,-1,-1,-1,-1,-1,-1,-1,-1,-1,-1,-1,-1,-1,-1,-1],"split_conditions":[3.2448978E0,2.8448277E1,6.2E0,2.4655173E0,2.8888888E0,2.9E1,2.4142857E1,1.097561E0,2.34E1,1E0,9E0,4.6E0,4.3333335E0,7.75E0,5.7777777E0,1.88E1,2E0,3E0,6.74E1,2.2813334E1,3.45E1,3.5E0,1.5353228E0,2.3809524E0,4.3195877E0,4.033557E1,1.48E1,4.769231E0,2.78E1,1.632E3,5.65E0,-2.7082665E-2,6.895318E-2,-5.436157E-2,-3.788438E-2,-3.602476E-2,-1.6614063E-2,6.4741746E-2,-4.4259676E-3,1.7772732E-2,-2.7413309E-2,-4.196861E-3,3.6208894E-2,2.8147576E-2,7.689997E-2,2.7454028E-2,4.4162368E-4,2.577565E-2,6.285456E-2,3.9555077E-2,1.15359366E-1,1.0313695E-1,1.2645873E0,3.459586E-2,8.280935E-2,4.003186E-1,-1.6134824E-1,9.277994E-2,1.5499038E-1,4.1176596E-1,1.9998057E-1],"split_indices":[58,17,56,58,58,17,17,64,17,4,97,56,56,96,58,93,56,95,70,40,17,56,0,46,58,17,99,58,29,21,67,0,0,0,0,0,0,0,0,0,0,0,0,0,0,0,0,0,0,0,0,0,0,0,0,0,0,0,0,0,0],"split_type":[0,0,0,0,0,0,0,0,0,0,0,0,0,0,0,0,0,0,0,0,0,0,0,0,0,0,0,0,0,0,0,0,0,0,0,0,0,0,0,0,0,0,0,0,0,0,0,0,0,0,0,0,0,0,0,0,0,0,0,0,0],"sum_hessian":[7.98047E5,5.29126E5,2.68921E5,3.8639E5,1.42736E5,2.33295E5,3.5626E4,2.00951E5,1.85439E5,1.19687E5,2.3049E4,1.79779E5,5.3516E4,1.8122E4,1.7504E4,4.106E4,1.59891E5,1.21415E5,6.4024E4,7.1177E4,4.851E4,2.3036E4,1.3E1,1.30802E5,4.8977E4,3.5216E4,1.83E4,1.7959E4,1.63E2,1.0238E4,7.266E3,4.0331E4,7.29E2,8.1842E4,7.8049E4,6.8168E4,5.3247E4,3.151E3,6.0873E4,1.5432E4,5.5745E4,2.255E4,2.596E4,1.4801E4,8.235E3,4.8136E4,8.2666E4,2.6022E4,2.2955E4,3.2079E4,3.137E3,1.8279E4,2.1E1,6.77E3,1.1189E4,1.4E2,2.3E1,4.026E3,6.212E3,8.14E2,6.452E3],"tree_param":{"num_deleted":"0","num_feature":"101","num_nodes":"61","size_leaf_vector":"1"}},{"base_weights":[2.085822E-4,-2.9026294E-1,1.0340908E0,-4.301593E-1,3.4344733E-1,8.3406544E-1,2.6148608E0,-1.1211431E-1,-6.1961436E-1,9.455348E-2,9.057116E-1,5.6874526E-1,1.6425748E0,1.9013522E0,4.6807103E0,-4.2079028E-1,1.8285562E-1,-7.487607E-1,-2.1538492E-1,-2.3413794E-1,5.494764E-1,7.2008973E-1,1.9061185E0,8.153819E-1,2.5222734E-1,2.9404426E0,1.429001E0,1.2684577E0,2.6277833E0,4.0991993E0,9.096402E0,9.042542E-3,-2.9563386E-2,4.180724E-2,1.7190864E-3,-4.9188863E-2,-3.0438548E-2,-1.9563792E-2,1.3705566E-2,-7.2167935E-3,-7.986873E-2,5.5729803E-2,5.870019E-3,4.6852432E-2,5.097047E-3,8.570279E-2,2.9636884E-1,2.9150838E-2,7.053533E-2,5.8366144E-3,5.802208E-2,1.0942111E0,1.3888767E-1,5.377951E-2,1.3138215E-1,7.321944E-2,-3.2658696E-2,1.799038E-1,9.402404E-2,3.903594E-1,1.8798396E-1,2.3839812E-1,5.172085E-1],"categories":[],"categories_nodes":[],"categories_segments":[],"categories_sizes":[],"default_left":[0,0,0,0,0,0,0,0,0,0,0,0,0,0,0,0,0,0,0,0,0,0,0,0,0,0,0,0,0,0,0,0,0,0,0,0,0,0,0,0,0,0,0,0,0,0,0,0,0,0,0,0,0,0,0,0,0,0,0,0,0,0,0],"id":7,"left_children":[1,3,5,7,9,11,13,15,17,19,21,23,25,27,29,31,33,35,37,39,41,43,45,47,49,51,53,55,57,59,61,-1,-1,-1,-1,-1,-1,-1,-1,-1,-1,-1,-1,-1,-1,-1,-1,-1,-1,-1,-1,-1,-1,-1,-1,-1,-1,-1,-1,-1,-1,-1,-1],"loss_changes":[2.3950355E5,5.519537E4,5.5305797E4,3.0730383E4,1.5755843E4,3.3307055E4,2.8950156E4,1.7335318E4,1.6685172E4,1.1669872E4,6.413467E3,9.126258E3,1.06295E4,6.7109805E3,1.291068E4,9.542396E3,9.443259E3,7.968453E3,6.6632397E3,5.5462666E3,7.993044E3,3.9079844E3,4.1643125E3,9.088543E3,6.3007036E3,1.6640902E4,1.3952734E4,2.9404287E3,4.9226562E3,5.581836E3,3.114086E3,0E0,0E0,0E0,0E0,0E0,0E0,0E0,0E0,0E0,0E0,0E0,0E0,0E0,0E0,0E0,0E0,0E0,0E0,0E0,0E0,0E0,0E0,0E0,0E0,0E0,0E0,0E0,0E0,0E0,0E0,0E0,0E0],"parents":[2147483647,0,0,1,1,2,2,3,3,4,4,5,5,6,6,7,7,8,8,9,9,10,10,11,11,12,12,13,13,14,14,15,15,16,16,17,17,18,18,19,19,20,20,21,21,22,22,23,23,24,24,25,25,26,26,27,27,28,28,29,29,30,30],"right_children":[2,4,6,8,10,12,14,16,18,20,22,24,26,28,30,32,34,36,38,40,42,44,46,48,50,52,54,56,58,60,62,-1,-1,-1,-1,-1,-1,-1,-1,-1,-1,-1,-1,-1,-1,-1,-1,-1,-1,-1,-1,-1,-1,-1,-1,-1,-1,-1,-1,-1,-1,-1,-1],"split_conditions":[3.65E0,1E0,6.15E0,1E0,3.45E1,2.8448277E1,2.9E1,2.0857143E1,2.8E0,2.45E0,3.05E0,2.395E1,1.0780488E1,2.2027027E1,1E0,2.75E0,6.666667E-2,2.2E1,2.8E1,1.14E2,2.5842106E1,5.625E-1,2.1333334E0,2.3153847E1,1E0,2E-1,3.6E1,2.7391305E0,8.656036E-2,1.6E0,2.4E1,9.042542E-3,-2.9563386E-2,4.180724E-2,1.7190864E-3,-4.9188863E-2,-3.0438548E-2,-1.9563792E-2,1.3705566E-2,-7.2167935E-3,-7.986873E-2,5.5729803E-2,5.870019E-3,4.6852432E-2,5.097047E-3,8.570279E-2,2.9636884E-1,2.9150838E-2,7.053533E-2,5.8366144E-3,5.802208E-2,1.0942111E0,1.3888767E-1,5.377951E-2,1.3138215E-1,7.321944E-2,-3.2658696E-2,1.799038E-1,9.402404E-2,3.903594E-1,1.8798396E-1,2.3839812E-1,5.172085E-1],"split_indices":[57,4,57,6,17,17,17,17,57,57,57,39,73,17,59,51,54,17,17,68,39,54,63,17,4,62,17,46,18,51,38,0,0,0,0,0,0,0,0,0,0,0,0,0,0,0,0,0,0,0,0,0,0,0,0,0,0,0,0,0,0,0,0],"split_type":[0,0,0,0,0,0,0,0,0,0,0,0,0,0,0,0,0,0,0,0,0,0,0,0,0,0,0,0,0,0,0,0,0,0,0,0,0,0,0,0,0,0,0,0,0,0,0,0,0,0,0,0,0,0,0,0,0,0,0,0,0,0,0],"sum_hessian":[7.9751E5,6.22592E5,1.74918E5,5.10005E5,1.12587E5,1.55272E5,1.9646E4,1.90391E5,3.19614E5,7.8042E4,3.4545E4,1.16909E5,3.8363E4,1.4604E4,5.042E3,9.3034E4,9.7357E4,2.42225E5,7.7389E4,4.5307E4,3.2735E4,2.914E4,5.405E3,6.5707E4,5.1202E4,5.419E3,3.2944E4,7.806E3,6.798E3,4.457E3,5.85E2,2.0541E4,7.2493E4,1.8028E4,7.9329E4,9.042E4,1.51805E5,5.6932E4,2.0457E4,4.2508E4,2.799E3,1.4183E4,1.8552E4,2.1569E4,7.571E3,5.16E3,2.45E2,4.7262E4,1.8445E4,4.4556E4,6.646E3,4.5E1,5.374E3,2.5444E4,7.5E3,7.084E3,7.22E2,2.956E3,3.842E3,3.72E2,4.085E3,1.32E2,4.53E2],"tree_param":{"num_deleted":"0","num_feature":"101","num_nodes":"63","size_leaf_vector":"1"}},{"base_weights":[-1.0208735E-3,-3.8832983E-1,7.5922966E-1,-5.7492363E-1,4.9361985E-2,5.591987E-1,2.0342758E0,-7.652322E-1,-3.39712E-1,-9.674366E-2,7.9999244E-1,2.6387364E-1,1.0222942E0,1.2676227E0,3.1693437E0,-6.9154894E-1,-1.0971193E0,-4.8942602E-1,-7.610268E-3,-2.6089475E-1,4.062486E-1,7.868499E-1,1.4451274E0,5.341928E-1,-9.5377706E-2,9.37652E-1,2.6330721E0,-2.2842407E-1,1.4965227E0,3.3631763E0,-9.909198E-1,-1.4410034E-2,-3.782032E-2,-7.302274E-2,-4.777697E-2,-2.0055918E-2,-4.2512532E-2,6.758799E-2,-3.9039028E-3,-3.167133E-3,-3.28993E-2,-1.1582982E-2,3.575532E-2,3.0829126E-2,8.313295E-2,9.315496E-3,3.811968E-2,1.5353815E-3,-3.8718414E-2,6.919274E-2,3.3319246E-2,8.492055E-2,1.9902986E-1,1.0488867E-2,-1.2704112E-1,6.9635324E-2,2.6573E-1,1.5262638E-1,3.057053E-1,-1.741678E-1,6.6734254E-3],"categories":[],"categories_nodes":[],"categories_segments":[],"categories_sizes":[],"default_left":[0,0,0,0,0,0,0,0,0,0,0,0,0,0,0,0,0,0,0,0,0,0,0,0,0,0,0,0,0,0,0,0,0,0,0,0,0,0,0,0,0,0,0,0,0,0,0,0,0,0,0,0,0,0,0,0,0,0,0,0,0],"id":8,"left_children":[1,3,5,7,9,11,13,15,17,19,21,23,25,27,29,31,33,35,37,39,41,43,-1,45,47,49,51,53,55,57,59,-1,-1,-1,-1,-1,-1,-1,-1,-1,-1,-1,-1,-1,-1,-1,-1,-1,-1,-1,-1,-1,-1,-1,-1,-1,-1,-1,-1,-1,-1],"loss_changes":[2.3491042E5,4.3165438E4,6.867275E4,1.658679E4,1.7325367E4,3.1830945E4,3.1769266E4,5.0080625E3,8.240041E3,1.0918385E4,9.480686E3,1.380153E4,1.2353641E4,7.4640547E3,1.1872906E4,4.384617E3,1.9125352E3,3.639373E3,4.9330635E3,7.8209736E3,6.4107495E3,3.8353516E3,0E0,6.437824E3,5.2242373E3,1.0421273E4,5.6905586E3,2.932232E3,7.484676E3,1.1999141E4,1.8392178E3,0E0,0E0,0E0,0E0,0E0,0E0,0E0,0E0,0E0,0E0,0E0,0E0,0E0,0E0,0E0,0E0,0E0,0E0,0E0,0E0,0E0,0E0,0E0,0E0,0E0,0E0,0E0,0E0,0E0,0E0],"parents":[2147483647,0,0,1,1,2,2,3,3,4,4,5,5,6,6,7,7,8,8,9,9,10,10,11,11,12,12,13,13,14,14,15,15,16,16,17,17,18,18,19,19,20,20,21,21,23,23,24,24,25,25,26,26,27,27,28,28,29,29,30,30],"right_children":[2,4,6,8,10,12,14,16,18,20,22,24,26,28,30,32,34,36,38,40,42,44,-1,46,48,50,52,54,56,58,60,-1,-1,-1,-1,-1,-1,-1,-1,-1,-1,-1,-1,-1,-1,-1,-1,-1,-1,-1,-1,-1,-1,-1,-1,-1,-1,-1,-1,-1,-1],"split_conditions":[3.2448978E0,2.8E1,5.277512E0,2.5092025E0,2.8888888E0,2.5262295E1,2.5744856E1,1E0,2.35E1,3.538342E1,9E0,7.569768E1,4.125688E1,8.5E0,1.65E1,1.0450705E1,1.8857143E1,1E0,1.015625E1,1.3869281E1,2.0068965E0,3.9E1,1.4451274E0,2.4903846E0,1E0,7.5375E1,3.85E0,1.5E0,1.5166667E1,1.49E1,4.5454547E-1,-1.4410034E-2,-3.782032E-2,-7.302274E-2,-4.777697E-2,-2.0055918E-2,-4.2512532E-2,6.758799E-2,-3.9039028E-3,-3.167133E-3,-3.28993E-2,-1.1582982E-2,3.575532E-2,3.0829126E-2,8.313295E-2,9.315496E-3,3.811968E-2,1.5353815E-3,-3.8718414E-2,6.919274E-2,3.3319246E-2,8.492055E-2,1.9902986E-1,1.0488867E-2,-1.2704112E-1,6.9635324E-2,2.6573E-1,1.5262638E-1,3.057053E-1,-1.741678E-1,6.6734254E-3],"split_indices":[58,17,58,58,58,17,17,16,17,17,97,70,17,71,42,43,17,16,73,43,58,17,0,49,16,70,57,62,76,74,54,0,0,0,0,0,0,0,0,0,0,0,0,0,0,0,0,0,0,0,0,0,0,0,0,0,0,0,0,0,0],"split_type":[0,0,0,0,0,0,0,0,0,0,0,0,0,0,0,0,0,0,0,0,0,0,0,0,0,0,0,0,0,0,0,0,0,0,0,0,0,0,0,0,0,0,0,0,0,0,0,0,0,0,0,0,0,0,0,0,0,0,0,0,0],"sum_hessian":[7.97787E5,5.28529E5,2.69258E5,3.70556E5,1.57973E5,2.32746E5,3.6512E4,2.04828E5,1.65728E5,1.32235E5,2.5738E4,1.42117E5,9.0629E4,2.1794E4,1.4718E4,1.67618E5,3.721E4,1.14231E5,5.1497E4,9.9699E4,3.2536E4,2.5727E4,1.1E1,8.1096E4,6.1021E4,8.6106E4,4.523E3,2.892E3,1.8902E4,1.4063E4,6.55E2,2.322E4,1.44398E5,1.0431E4,2.6779E4,9.1773E4,2.2458E4,2.537E3,4.896E4,6.6578E4,3.3121E4,1.0614E4,2.1922E4,2.1541E4,4.186E3,3.2125E4,4.8971E4,5.1465E4,9.556E3,3.2554E4,5.3552E4,2.672E3,1.851E3,2.432E3,4.6E2,1.8403E4,4.99E2,1.2638E4,1.425E3,2.03E2,4.52E2],"tree_param":{"num_deleted":"0","num_feature":"101","num_nodes":"61","size_leaf_vector":"1"}},{"base_weights":[-3.0492696E-3,-3.076598E-1,8.6333865E-1,-4.797458E-1,2.9621128E-2,6.294793E-1,2.1653771E0,-7.258009E-1,-2.8153357E-1,-1.3819216E-1,5.5919355E-1,3.6701974E-1,1.3698905E0,1.1904838E0,3.0969677E0,-2.945935E-1,-8.075419E-1,-3.7484673E-1,2.0243563E-1,3.9507824E-1,-2.611883E-1,6.8152815E-1,-2.4489671E-1,1.0063102E-1,7.8921765E-1,1.3611032E0,1.1298733E0,1.1273425E0,5.1549716E0,2.8907638E0,6.0458198E0,-1.8436816E-2,8.438223E-2,-4.875733E-2,-3.4449793E-2,-2.8282126E-2,-1.0374467E-2,3.741961E-2,-4.680093E-3,3.0169953E-2,-2.0001901E-2,-3.1549472E-2,9.999083E-4,2.9008228E-2,8.741249E-2,-2.8914763E-2,3.714474E-2,5.538402E-2,1.5385449E-3,2.0858083E-2,5.0780114E-2,4.889856E-2,8.938741E-2,5.4045446E-2,2.9558834E-1,3.6852917E-1,-5.603997E-2,1.5525377E-1,5.1312994E-2,5.048876E-1,2.2673987E-1],"categories":[],"categories_nodes":[],"categories_segments":[],"categories_sizes":[],"default_left":[0,0,0,0,0,0,0,0,0,0,0,0,0,0,0,0,0,0,0,0,0,0,0,0,0,0,0,0,0,0,0,0,0,0,0,0,0,0,0,0,0,0,0,0,0,0,0,0,0,0,0,0,0,0,0,0,0,0,0,0,0],"id":9,"left_children":[1,3,5,7,9,11,13,15,17,19,21,23,25,27,29,31,33,35,37,39,41,43,45,47,49,51,-1,53,55,57,59,-1,-1,-1,-1,-1,-1,-1,-1,-1,-1,-1,-1,-1,-1,-1,-1,-1,-1,-1,-1,-1,-1,-1,-1,-1,-1,-1,-1,-1,-1],"loss_changes":[2.10737E5,3.429082E4,6.324692E4,1.9079062E4,1.773825E4,3.4218734E4,2.8719578E4,6.151578E3,9.784926E3,9.941532E3,4.72483E3,1.462167E4,8.562992E3,3.8625586E3,9.81525E3,4.088423E3,2.9143672E3,5.7999297E3,5.6606787E3,4.7055757E3,1.2806941E4,4.506338E3,2.089342E3,5.6079395E3,4.235664E3,7.528E3,0E0,3.373041E3,3.373816E3,6.0369062E3,6.418172E3,0E0,0E0,0E0,0E0,0E0,0E0,0E0,0E0,0E0,0E0,0E0,0E0,0E0,0E0,0E0,0E0,0E0,0E0,0E0,0E0,0E0,0E0,0E0,0E0,0E0,0E0,0E0,0E0,0E0,0E0],"parents":[2147483647,0,0,1,1,2,2,3,3,4,4,5,5,6,6,7,7,8,8,9,9,10,10,11,11,12,12,13,13,14,14,15,15,16,16,17,17,18,18,19,19,20,20,21,21,22,22,23,23,24,24,25,25,27,27,28,28,29,29,30,30],"right_children":[2,4,6,8,10,12,14,16,18,20,22,24,26,28,30,32,34,36,38,40,42,44,46,48,50,52,-1,54,56,58,60,-1,-1,-1,-1,-1,-1,-1,-1,-1,-1,-1,-1,-1,-1,-1,-1,-1,-1,-1,-1,-1,-1,-1,-1,-1,-1,-1,-1,-1,-1],"split_conditions":[3.75E0,2.7E1,6.4E0,2.2E0,2.9E0,2.8448277E1,2.4142857E1,2.1365715E1,3.5833333E0,1.5E-1,2.8947368E0,4.1E0,1.84E1,7.2E0,1.92E1,7.571429E0,2.0135593E1,2.0857143E1,2.265E1,2.6E1,2E0,1.6666666E1,3.6E1,2E1,1.975E1,3.75E0,1.1298733E0,1.3E1,2.3945946E1,3.88E1,4E0,-1.8436816E-2,8.438223E-2,-4.875733E-2,-3.4449793E-2,-2.8282126E-2,-1.0374467E-2,3.741961E-2,-4.680093E-3,3.0169953E-2,-2.0001901E-2,-3.1549472E-2,9.999083E-4,2.9008228E-2,8.741249E-2,-2.8914763E-2,3.714474E-2,5.538402E-2,1.5385449E-3,2.0858083E-2,5.0780114E-2,4.889856E-2,8.938741E-2,5.4045446E-2,2.9558834E-1,3.6852917E-1,-5.603997E-2,1.5525377E-1,5.1312994E-2,5.048876E-1,2.2673987E-1],"split_indices":[56,17,56,56,57,17,17,40,57,54,45,57,99,96,47,25,17,17,39,38,56,41,17,38,17,57,0,56,40,38,8,0,0,0,0,0,0,0,0,0,0,0,0,0,0,0,0,0,0,0,0,0,0,0,0,0,0,0,0,0,0],"split_type":[0,0,0,0,0,0,0,0,0,0,0,0,0,0,0,0,0,0,0,0,0,0,0,0,0,0,0,0,0,0,0,0,0,0,0,0,0,0,0,0,0,0,0,0,0,0,0,0,0,0,0,0,0,0,0,0,0,0,0,0,0],"sum_hessian":[7.98514E5,5.90798E5,2.07716E5,3.91201E5,1.99597E5,1.7609E5,3.1626E4,1.74535E5,2.16666E5,1.51568E5,4.8029E4,1.30007E5,4.6083E4,1.5455E4,1.6171E4,2.7814E4,1.46721E5,1.81644E5,3.5022E4,2.8406E4,1.23162E5,4.1687E4,6.342E3,7.9713E4,5.0294E4,4.6065E4,1.8E1,1.5214E4,2.41E2,1.5116E4,1.055E3,2.6812E4,1.002E3,6.078E4,8.5941E4,8.4877E4,9.6767E4,1.2313E4,2.2709E4,2.2509E4,5.897E3,5.3198E4,6.9964E4,3.8071E4,3.616E3,4.742E3,1.6E3,5.17E3,7.4543E4,1.9027E4,3.1267E4,2.4272E4,2.1793E4,1.5069E4,1.45E2,1.78E2,6.3E1,1.3557E4,1.559E3,2.85E2,7.7E2],"tree_param":{"num_deleted":"0","num_feature":"101","num_nodes":"61","size_leaf_vector":"1"}},{"base_weights":[1.7930845E-3,-3.524354E-1,6.972517E-1,-4.8382178E-1,2.2202659E-1,5.1109546E-1,1.8756801E0,-6.52732E-1,-2.359817E-1,-2.3265103E-2,7.617936E-1,2.4317336E-1,9.3099153E-1,1.1843392E0,2.9103947E0,-2.4328431E-1,-7.2623086E-1,-4.2265126E-1,4.4196002E-2,2.8849077E-1,-3.7513602E-1,-7.401675E-2,1.15472E0,5.058014E-1,-7.6395445E-2,8.500387E-1,2.464623E0,-1.8937439E-1,1.3911328E0,2.6691947E0,6.157698E0,-2.1962896E-2,2.2195522E-2,-5.236147E-2,-3.1504694E-2,-4.0236272E-2,-1.7053267E-2,5.565697E-2,-2.317421E-3,9.780484E-3,1.2321444E-1,-2.4851842E-2,1.2157803E-2,2.07886E-2,-2.0110564E-2,5.21742E-2,1.2235405E-1,1.2836277E-2,4.1619897E-2,1.894889E-3,-3.4837093E-2,3.0808235E-2,6.959777E-2,7.846944E-2,1.8807006E-1,1.3865175E-2,-1.09291986E-1,6.495363E-2,2.4130526E-1,1.4279382E-1,-5.0163735E-2,1.4525895E-1,4.1632253E-1],"categories":[],"categories_nodes":[],"categories_segments":[],"categories_sizes":[],"default_left":[0,0,0,0,0,0,0,0,0,0,0,0,0,0,0,0,0,0,0,0,0,0,0,0,0,0,0,0,0,0,0,0,0,0,0,0,0,0,0,0,0,0,0,0,0,0,0,0,0,0,0,0,0,0,0,0,0,0,0,0,0,0,0],"id":10,"left_children":[1,3,5,7,9,11,13,15,17,19,21,23,25,27,29,31,33,35,37,39,41,43,45,47,49,51,53,55,57,59,61,-1,-1,-1,-1,-1,-1,-1,-1,-1,-1,-1,-1,-1,-1,-1,-1,-1,-1,-1,-1,-1,-1,-1,-1,-1,-1,-1,-1,-1,-1,-1,-1],"loss_changes":[1.9648905E5,3.9884836E4,5.9044477E4,1.8003914E4,1.30235205E4,2.6149133E4,2.6262023E4,7.696672E3,9.11674E3,7.4190903E3,1.0093604E4,1.190951E4,1.1238398E4,6.2537324E3,1.1501164E4,5.2424385E3,6.6907812E3,3.260627E3,6.746203E3,7.246218E3,2.3948115E3,1.5801381E3,3.0024844E3,6.3358223E3,4.5386323E3,1.0898984E4,5.2629824E3,2.6850425E3,6.0434375E3,9.389367E3,7.141461E3,0E0,0E0,0E0,0E0,0E0,0E0,0E0,0E0,0E0,0E0,0E0,0E0,0E0,0E0,0E0,0E0,0E0,0E0,0E0,0E0,0E0,0E0,0E0,0E0,0E0,0E0,0E0,0E0,0E0,0E0,0E0,0E0],"parents":[2147483647,0,0,1,1,2,2,3,3,4,4,5,5,6,6,7,7,8,8,9,9,10,10,11,11,12,12,13,13,14,14,15,15,16,16,17,17,18,18,19,19,20,20,21,21,22,22,23,23,24,24,25,25,26,26,27,27,28,28,29,29,30,30],"right_children":[2,4,6,8,10,12,14,16,18,20,22,24,26,28,30,32,34,36,38,40,42,44,46,48,50,52,54,56,58,60,62,-1,-1,-1,-1,-1,-1,-1,-1,-1,-1,-1,-1,-1,-1,-1,-1,-1,-1,-1,-1,-1,-1,-1,-1,-1,-1,-1,-1,-1,-1,-1,-1],"split_conditions":[3.2448978E0,1E0,5.277512E0,2.5617285E0,3.45E1,2.5262295E1,2.6E1,2.3157895E0,2.4E1,2.5734043E1,2.1111112E0,7.529412E1,4.125688E1,8.5E0,1.92E1,2.668593E1,1.8596492E0,1.7E1,2.123077E1,3.142857E0,2.9230769E0,4.8E0,2.1538463E0,2.0135593E1,1E0,4.2E0,3.85E0,1.25E0,1.5166667E1,1.65E1,5.555556E-1,-2.1962896E-2,2.2195522E-2,-5.236147E-2,-3.1504694E-2,-4.0236272E-2,-1.7053267E-2,5.565697E-2,-2.317421E-3,9.780484E-3,1.2321444E-1,-2.4851842E-2,1.2157803E-2,2.07886E-2,-2.0110564E-2,5.21742E-2,1.2235405E-1,1.2836277E-2,4.1619897E-2,1.894889E-3,-3.4837093E-2,3.0808235E-2,6.959777E-2,7.846944E-2,1.8807006E-1,1.3865175E-2,-1.09291986E-1,6.495363E-2,2.4130526E-1,1.4279382E-1,-5.0163735E-2,1.4525895E-1,4.1632253E-1],"split_indices":[58,4,58,58,17,17,17,46,17,40,58,70,17,71,47,17,58,17,40,79,58,65,63,17,16,77,57,62,76,42,54,0,0,0,0,0,0,0,0,0,0,0,0,0,0,0,0,0,0,0,0,0,0,0,0,0,0,0,0,0,0,0,0],"split_type":[0,0,0,0,0,0,0,0,0,0,0,0,0,0,0,0,0,0,0,0,0,0,0,0,0,0,0,0,0,0,0,0,0,0,0,0,0,0,0,0,0,0,0,0,0,0,0,0,0,0,0,0,0,0,0,0,0,0,0,0,0,0,0],"sum_hessian":[7.97595E5,5.28438E5,2.69157E5,4.30075E5,9.8363E4,2.3244E5,3.6717E4,2.55763E5,1.74312E5,6.763E4,3.0733E4,1.419E5,9.054E4,2.2012E4,1.4705E4,3.8925E4,2.16838E5,1.04613E5,6.9699E4,3.5859E4,3.1771E4,9.828E3,2.0905E4,7.7889E4,6.4011E4,8.6002E4,4.538E3,2.88E3,1.9132E4,1.369E4,1.015E3,3.0288E4,8.637E3,4.9972E4,1.66866E5,1.8406E4,8.6207E4,5.442E3,6.4257E4,3.4392E4,1.467E3,2.6539E4,5.232E3,3.943E3,5.885E3,1.925E4,1.655E3,4.419E4,3.3699E4,5.4053E4,9.958E3,6.0077E4,2.5925E4,2.686E3,1.852E3,2.335E3,5.45E2,1.8634E4,4.98E2,1.3028E4,6.62E2,4.07E2,6.08E2],"tree_param":{"num_deleted":"0","num_feature":"101","num_nodes":"63","size_leaf_vector":"1"}},{"base_weights":[-4.5128303E-4,-2.6784146E-1,8.3833534E-1,-4.2929766E-1,1.3904333E-1,6.3416076E-1,2.1846993E0,-5.4462814E-1,6.757853E-2,-2.4617727E-1,5.070252E-1,4.3974534E-1,1.3058202E0,1.1802546E0,3.2822561E0,-6.499213E-1,-3.3759332E-1,-1.03154175E-1,5.493619E-1,-1.4521432E-1,-6.1135495E-1,5.0231135E-1,1.4041156E0,7.5476056E-1,1.866556E-1,3.8720506E-1,1.6488523E0,3.9468807E-1,1.4485242E0,3.017902E0,6.4970455E0,-1.4486623E-2,-3.6139287E-2,-3.4278356E-2,-1.013113E-2,-6.4483196E-3,1.6293137E-1,2.5513483E-2,2.5715002E-1,-2.1131104E-2,4.689466E-5,1.2331429E-2,-3.5047617E-2,1.6245252E-2,5.6001782E-2,9.264756E-3,4.9305424E-2,3.2438457E-3,4.7805663E-2,1.570894E-2,3.0711025E-1,7.210278E-2,1.5990332E-1,1.6066764E-1,7.087895E-3,2.1271352E-1,6.6901565E-2,3.4048855E-1,1.4383142E-1,2.08897E-1,4.361484E-1],"categories":[],"categories_nodes":[],"categories_segments":[],"categories_sizes":[],"default_left":[0,0,0,0,0,0,0,0,0,0,0,0,0,0,0,0,0,0,0,0,0,0,0,0,0,0,0,0,0,0,0,0,0,0,0,0,0,0,0,0,0,0,0,0,0,0,0,0,0,0,0,0,0,0,0,0,0,0,0,0,0],"id":11,"left_children":[1,3,5,7,9,11,13,15,17,19,21,23,25,27,29,31,33,35,37,39,41,43,-1,45,47,49,51,53,55,57,59,-1,-1,-1,-1,-1,-1,-1,-1,-1,-1,-1,-1,-1,-1,-1,-1,-1,-1,-1,-1,-1,-1,-1,-1,-1,-1,-1,-1,-1,-1],"loss_changes":[1.789213E5,3.9739215E4,5.3007375E4,2.4816984E4,2.4360043E4,2.186425E4,2.7988719E4,7.6618047E3,6.7108896E3,3.0952808E3,1.1407541E4,1.0352969E4,1.1843371E4,2.793705E3,1.0290578E4,6.1144766E3,5.565087E3,5.227262E3,3.8302104E3,2.6667673E3,1.3980786E3,9.629662E3,0E0,7.6212617E3,6.747241E3,4.2929653E3,8.762555E3,2.4067578E3,3.0579375E3,5.9861484E3,4.7166016E3,0E0,0E0,0E0,0E0,0E0,0E0,0E0,0E0,0E0,0E0,0E0,0E0,0E0,0E0,0E0,0E0,0E0,0E0,0E0,0E0,0E0,0E0,0E0,0E0,0E0,0E0,0E0,0E0,0E0,0E0],"parents":[2147483647,0,0,1,1,2,2,3,3,4,4,5,5,6,6,7,7,8,8,9,9,10,10,11,11,12,12,13,13,14,14,15,15,16,16,17,17,18,18,19,19,20,20,21,21,23,23,24,24,25,25,26,26,27,27,28,28,29,29,30,30],"right_children":[2,4,6,8,10,12,14,16,18,20,22,24,26,28,30,32,34,36,38,40,42,44,-1,46,48,50,52,54,56,58,60,-1,-1,-1,-1,-1,-1,-1,-1,-1,-1,-1,-1,-1,-1,-1,-1,-1,-1,-1,-1,-1,-1,-1,-1,-1,-1,-1,-1,-1,-1],"split_conditions":[3.6734693E0,2.8888888E0,6.6E0,3.0924875E1,2.34E1,2.8924906E1,2.4833334E1,2.6E0,2.8E0,4.6153846E-1,9E0,2.3913043E0,1.2E1,1.7153847E1,1E0,2.3137255E0,1.923077E1,7.35E1,4.15E0,5.4E0,4.7777777E0,4.2E0,1.4041156E0,1.8082474E1,5.3450294E0,1.72E2,5.35E0,7E0,1.5E0,5.044818E0,1.155E1,-1.4486623E-2,-3.6139287E-2,-3.4278356E-2,-1.013113E-2,-6.4483196E-3,1.6293137E-1,2.5513483E-2,2.5715002E-1,-2.1131104E-2,4.689466E-5,1.2331429E-2,-3.5047617E-2,1.6245252E-2,5.6001782E-2,9.264756E-3,4.9305424E-2,3.2438457E-3,4.7805663E-2,1.570894E-2,3.0711025E-1,7.210278E-2,1.5990332E-1,1.6066764E-1,7.087895E-3,2.1271352E-1,6.6901565E-2,3.4048855E-1,1.4383142E-1,2.08897E-1,4.361484E-1],"split_indices":[58,58,56,17,17,17,17,56,56,16,97,46,8,17,59,46,17,10,57,99,67,56,0,17,58,14,57,8,49,67,48,0,0,0,0,0,0,0,0,0,0,0,0,0,0,0,0,0,0,0,0,0,0,0,0,0,0,0,0,0,0],"split_type":[0,0,0,0,0,0,0,0,0,0,0,0,0,0,0,0,0,0,0,0,0,0,0,0,0,0,0,0,0,0,0,0,0,0,0,0,0,0,0,0,0,0,0,0,0,0,0,0,0,0,0,0,0,0,0,0,0,0,0,0,0],"sum_hessian":[7.97745E5,6.04911E5,1.92834E5,4.33066E5,1.71845E5,1.67443E5,2.5391E4,3.51483E5,8.1583E4,8.3956E4,8.7889E4,1.29857E5,3.7586E4,1.3259E4,1.2132E4,2.32988E5,1.18495E5,6.0237E4,2.1346E4,6.5773E4,1.8183E4,8.7875E4,1.4E1,5.785E4,7.2007E4,1.022E4,2.7366E4,3.376E3,9.883E3,1.1212E4,9.2E2,3.9203E4,1.93785E5,3.3115E4,8.538E4,5.9779E4,4.58E2,2.1167E4,1.79E2,2.2695E4,4.3078E4,1.719E3,1.6464E4,6.827E4,1.9605E4,1.6713E4,4.1137E4,6.2169E4,9.838E3,1.0093E4,1.27E2,2.4145E4,3.221E3,2.77E2,3.099E3,3.73E2,9.51E3,4.01E2,1.0811E4,4.52E2,4.68E2],"tree_param":{"num_deleted":"0","num_feature":"101","num_nodes":"61","size_leaf_vector":"1"}},{"base_weights":[4.3271016E-4,-2.0421216E-1,9.959045E-1,-3.869093E-1,1.2849928E-1,5.5446464E-1,1.6392348E0,-4.92583E-1,8.233594E-2,-1.591864E-1,4.4264197E-1,2.058463E-1,9.501481E-1,1.3658426E0,3.2655451E0,-1.9484897E-1,-6.332513E-1,-4.464201E-2,9.5395887E-1,-5.0784007E-2,-6.309379E-1,7.8500724E-1,2.638897E-1,1.5598601E-1,2.1259658E0,7.8237945E-1,1.7925653E0,1.1400872E0,2.142091E0,2.9136796E0,7.0576963E0,-9.910694E-3,1.167354E0,-3.746529E-2,-2.0316888E-2,1.3752625E-3,-5.7462998E-2,3.7028708E-2,1.2543781E-1,5.217235E-2,-6.2505915E-3,-3.7561357E-2,-8.79437E-3,-3.1920407E-2,4.2792823E-2,-4.6846372E-4,3.8514946E-2,-6.938203E-3,2.0912716E-2,2.0221607E-1,7.174867E-2,4.629366E-2,-1.6426247E-3,3.0569196E-2,1.1771947E-1,6.400784E-2,-2.7866041E-2,2.523933E-1,9.8569915E-2,1.1434169E-1,2.1599768E-1,2.1742037E-1,4.4187137E-1],"categories":[],"categories_nodes":[],"categories_segments":[],"categories_sizes":[],"default_left":[0,0,0,0,0,0,0,0,0,0,0,0,0,0,0,0,0,0,0,0,0,0,0,0,0,0,0,0,0,0,0,0,0,0,0,0,0,0,0,0,0,0,0,0,0,0,0,0,0,0,0,0,0,0,0,0,0,0,0,0,0,0,0],"id":12,"left_children":[1,3,5,7,9,11,13,15,17,19,21,23,25,27,29,31,33,35,37,39,41,43,45,47,49,51,53,55,57,59,61,-1,-1,-1,-1,-1,-1,-1,-1,-1,-1,-1,-1,-1,-1,-1,-1,-1,-1,-1,-1,-1,-1,-1,-1,-1,-1,-1,-1,-1,-1,-1,-1],"loss_changes":[1.62601E5,4.0243797E4,3.8651266E4,2.1192574E4,2.1209332E4,1.1134271E4,2.4620828E4,1.4609234E4,8.694467E3,6.264426E3,6.865127E3,4.1078325E3,5.3416484E3,8.306695E3,1.0613031E4,8.868826E3,6.2381484E3,5.464681E3,3.3118672E3,8.090764E3,1.252667E3,3.8811934E3,1.0199307E4,3.2335405E3,1.4332168E3,3.6885215E3,4.1644473E3,8.734957E3,5.2875625E3,6.420125E3,3.219793E3,0E0,0E0,0E0,0E0,0E0,0E0,0E0,0E0,0E0,0E0,0E0,0E0,0E0,0E0,0E0,0E0,0E0,0E0,0E0,0E0,0E0,0E0,0E0,0E0,0E0,0E0,0E0,0E0,0E0,0E0,0E0,0E0],"parents":[2147483647,0,0,1,1,2,2,3,3,4,4,5,5,6,6,7,7,8,8,9,9,10,10,11,11,12,12,13,13,14,14,15,15,16,16,17,17,18,18,19,19,20,20,21,21,22,22,23,23,24,24,25,25,26,26,27,27,28,28,29,29,30,30],"right_children":[2,4,6,8,10,12,14,16,18,20,22,24,26,28,30,32,34,36,38,40,42,44,46,48,50,52,54,56,58,60,62,-1,-1,-1,-1,-1,-1,-1,-1,-1,-1,-1,-1,-1,-1,-1,-1,-1,-1,-1,-1,-1,-1,-1,-1,-1,-1,-1,-1,-1,-1,-1,-1],"split_conditions":[4.3333335E0,2.8E0,2.55E1,1E0,2.4E1,5.3333335E0,6.15E0,1E0,4.229787E1,1E0,2.28E1,2E2,6.5E0,3.4E1,1.85E1,1.875E1,2.25E0,1.14E2,3.3333333E0,6.5E1,2.2E1,5.06E1,1E0,1.975E1,6.7E1,1E0,2.45E0,7.058824E-1,-9E1,3.2E1,1.07913665E-1,-9.910694E-3,1.167354E0,-3.746529E-2,-2.0316888E-2,1.3752625E-3,-5.7462998E-2,3.7028708E-2,1.2543781E-1,5.217235E-2,-6.2505915E-3,-3.7561357E-2,-8.79437E-3,-3.1920407E-2,4.2792823E-2,-4.6846372E-4,3.8514946E-2,-6.938203E-3,2.0912716E-2,2.0221607E-1,7.174867E-2,4.629366E-2,-1.6426247E-3,3.0569196E-2,1.1771947E-1,6.400784E-2,-2.7866041E-2,2.523933E-1,9.8569915E-2,1.1434169E-1,2.1599768E-1,2.1742037E-1,4.4187137E-1],"split_indices":[56,57,17,4,17,56,57,6,17,16,38,9,57,17,47,99,56,68,56,69,17,68,4,17,68,16,45,54,9,17,19,0,0,0,0,0,0,0,0,0,0,0,0,0,0,0,0,0,0,0,0,0,0,0,0,0,0,0,0,0,0,0,0],"split_type":[0,0,0,0,0,0,0,0,0,0,0,0,0,0,0,0,0,0,0,0,0,0,0,0,0,0,0,0,0,0,0,0,0,0,0,0,0,0,0,0,0,0,0,0,0,0,0,0,0,0,0,0,0,0,0,0,0,0,0,0,0,0,0],"sum_hessian":[7.98164E5,6.62061E5,1.36103E5,4.2738E5,2.34681E5,8.0718E4,5.5385E4,3.48825E5,7.8555E4,1.22499E5,1.12182E5,4.2912E4,3.7806E4,4.7416E4,7.969E3,1.11927E5,2.36898E5,6.8567E4,9.988E3,9.9611E4,2.2888E4,3.8479E4,7.3703E4,4.1827E4,1.085E3,3.1529E4,6.277E3,3.6735E4,1.0681E4,7.294E3,6.75E2,1.11912E5,1.5E1,1.56734E5,8.0164E4,6.4364E4,4.203E3,8.784E3,1.204E3,6.327E3,9.3284E4,1.8102E4,4.786E3,1.824E3,3.6655E4,4.7872E4,2.5831E4,1.9694E4,2.2133E4,2.86E2,7.99E2,2.681E4,4.719E3,2.024E3,4.253E3,3.3935E4,2.8E3,5.91E2,1.009E4,5.047E3,2.247E3,2.69E2,4.06E2],"tree_param":{"num_deleted":"0","num_feature":"101","num_nodes":"63","size_leaf_vector":"1"}},{"base_weights":[-5.6125526E-4,-2.4341029E-1,7.629595E-1,-3.6544934E-1,2.976773E-1,4.3879783E-1,1.3166887E0,-5.0433457E-1,-1.9009618E-2,8.784932E-2,1.0009346E0,5.6952006E-1,-2.6231086E-1,1.0618485E0,2.952565E0,-3.077379E-1,-6.4438075E-1,-2.6109987E-1,2.9768112E-1,-2.2356464E-2,8.445921E-1,2.2998462E0,8.506835E-1,4.312029E-1,1.185808E0,-4.3128306E-1,7.387106E-1,9.7406495E-1,2.6530023E0,2.5264864E0,5.0344677E0,-2.1614455E-2,1.8677785E-3,-4.5583237E-2,-2.8343538E-2,2.2748138E-3,-1.8400911E-2,1.4617289E-2,1.2699474E0,6.667995E-3,-2.4472574E-2,4.6577426E-3,5.91969E-2,7.087228E-2,1.956257E-1,2.7147576E-2,7.375604E-2,3.5369925E-2,2.7353622E-3,-1.8841317E-2,7.176977E-2,-3.375261E-2,-2.3536778E-3,2.5974762E-1,3.1202555E-2,8.558359E-2,3.9776035E-2,1.157284E-1,5.7202655E-1,1.556019E-1,7.342978E-2,2.7608174E-1,-3.0857628E-2],"categories":[],"categories_nodes":[],"categories_segments":[],"categories_sizes":[],"default_left":[0,0,0,0,0,0,0,0,0,0,0,0,0,0,0,0,0,0,0,0,0,0,0,0,0,0,0,0,0,0,0,0,0,0,0,0,0,0,0,0,0,0,0,0,0,0,0,0,0,0,0,0,0,0,0,0,0,0,0,0,0,0,0],"id":13,"left_children":[1,3,5,7,9,11,13,15,17,19,21,23,25,27,29,31,33,35,37,39,41,43,45,47,49,51,53,55,57,59,61,-1,-1,-1,-1,-1,-1,-1,-1,-1,-1,-1,-1,-1,-1,-1,-1,-1,-1,-1,-1,-1,-1,-1,-1,-1,-1,-1,-1,-1,-1,-1,-1],"loss_changes":[1.4796162E5,3.9978168E4,3.4563703E4,2.376893E4,1.6441133E4,1.1132045E4,2.963836E4,9.708586E3,1.0838516E4,7.156935E3,4.9946777E3,8.725926E3,3.2289238E3,8.590141E3,8.487172E3,6.3054873E3,4.2656875E3,2.6265083E3,8.192553E3,5.448484E3,2.7815264E3,3.7706133E3,4.409246E3,8.694192E3,7.3188633E3,1.5295251E3,1.4048667E3,7.6770234E3,9.536523E3,4.9239375E3,4.4834883E3,0E0,0E0,0E0,0E0,0E0,0E0,0E0,0E0,0E0,0E0,0E0,0E0,0E0,0E0,0E0,0E0,0E0,0E0,0E0,0E0,0E0,0E0,0E0,0E0,0E0,0E0,0E0,0E0,0E0,0E0,0E0,0E0],"parents":[2147483647,0,0,1,1,2,2,3,3,4,4,5,5,6,6,7,7,8,8,9,9,10,10,11,11,12,12,13,13,14,14,15,15,16,16,17,17,18,18,19,19,20,20,21,21,22,22,23,23,24,24,25,25,26,26,27,27,28,28,29,29,30,30],"right_children":[2,4,6,8,10,12,14,16,18,20,22,24,26,28,30,32,34,36,38,40,42,44,46,48,50,52,54,56,58,60,62,-1,-1,-1,-1,-1,-1,-1,-1,-1,-1,-1,-1,-1,-1,-1,-1,-1,-1,-1,-1,-1,-1,-1,-1,-1,-1,-1,-1,-1,-1,-1,-1],"split_conditions":[3.6734693E0,1E0,2.5619047E1,2.8888888E0,3E0,1E0,5.7777777E0,2.483871E0,2.3278196E1,4.229787E1,7.4617645E1,5.277512E0,5.6E0,4.125688E1,3.6E1,2.5016598E1,1.925926E0,7.12E1,8.6E0,1.3092198E1,2.0405405E0,6.2E0,3.2617836E1,7.552941E1,8.5E0,2.0135593E1,4.94E1,2.3428571E0,3.8181818E0,2.7142856E0,1.0323077E2,-2.1614455E-2,1.8677785E-3,-4.5583237E-2,-2.8343538E-2,2.2748138E-3,-1.8400911E-2,1.4617289E-2,1.2699474E0,6.667995E-3,-2.4472574E-2,4.6577426E-3,5.91969E-2,7.087228E-2,1.956257E-1,2.7147576E-2,7.375604E-2,3.5369925E-2,2.7353622E-3,-1.8841317E-2,7.176977E-2,-3.375261E-2,-2.3536778E-3,2.5974762E-1,3.1202555E-2,8.558359E-2,3.9776035E-2,1.157284E-1,5.7202655E-1,1.556019E-1,7.342978E-2,2.7608174E-1,-3.0857628E-2],"split_indices":[58,4,17,58,57,16,58,46,17,17,70,58,77,17,17,17,58,70,97,73,58,65,17,70,71,17,68,46,51,46,69,0,0,0,0,0,0,0,0,0,0,0,0,0,0,0,0,0,0,0,0,0,0,0,0,0,0,0,0,0,0,0,0],"split_type":[0,0,0,0,0,0,0,0,0,0,0,0,0,0,0,0,0,0,0,0,0,0,0,0,0,0,0,0,0,0,0,0,0,0,0,0,0,0,0,0,0,0,0,0,0,0,0,0,0,0,0,0,0,0,0,0,0,0,0,0,0,0,0],"sum_hessian":[7.97978E5,6.05417E5,1.92561E5,4.93999E5,1.11418E5,1.21459E5,7.1102E4,3.52631E5,1.41368E5,8.5815E4,2.5603E4,1.02372E5,1.9087E4,6.152E4,9.582E3,1.46699E5,2.05932E5,8.0121E4,6.1247E4,7.4907E4,1.0908E4,2.653E3,2.295E4,8.3609E4,1.8763E4,1.6331E4,2.756E3,5.8305E4,3.215E3,7.956E3,1.626E3,1.07794E5,3.8905E4,4.6291E4,1.59641E5,2.0716E4,5.9405E4,6.1235E4,1.2E1,5.6179E4,1.8728E4,3.394E3,7.514E3,1.716E3,9.37E2,1.5375E4,7.575E3,4.8228E4,3.5381E4,2.584E3,1.6179E4,9.991E3,6.34E3,6.8E1,2.688E3,1.1361E4,4.6944E4,3.097E3,1.18E2,5.12E3,2.836E3,1.497E3,1.29E2],"tree_param":{"num_deleted":"0","num_feature":"101","num_nodes":"63","size_leaf_vector":"1"}},{"base_weights":[-1.7331222E-4,-2.7164203E-1,6.3258594E-1,-4.1391656E-1,7.1192794E-3,4.3180895E-1,1.5563176E0,-3.293205E-1,-7.977005E-1,-2.5871858E-1,1.9143754E-1,2.3907816E-1,1.002026E0,9.28427E-1,2.318536E0,-5.050395E-1,-1.7231657E-1,-9.9528575E-1,-5.622797E-1,3.749373E-1,-4.6086994E-1,1.8844865E-1,1.8699392E1,5.181683E-1,-4.4445306E-2,1.621057E0,7.030266E-1,3.0827177E-1,1.1431684E0,1.6813035E0,3.0142953E0,-1.740491E-2,-3.5445098E-2,-2.1237977E-2,-3.795805E-3,-5.7338726E-2,-3.886887E-2,-5.3468097E-2,-1.9026032E-2,1.4747575E-2,2.608363E-1,-3.0090485E-2,1.660236E-3,4.119916E-3,3.1205822E-2,1.7951742E-1,1.2113346E0,1.0827609E-2,4.2630896E-2,-1.4904305E-2,1.0375614E-2,5.6712743E-2,1.398212E-1,7.2509716E-3,6.1707627E-2,-2.974408E-3,5.656913E-2,8.405443E-2,3.516777E-2,9.153925E-2,-1.6259847E-2,1.3417326E-1,2.8712985E-1],"categories":[],"categories_nodes":[],"categories_segments":[],"categories_sizes":[],"default_left":[0,0,0,0,0,0,0,0,0,0,0,0,0,0,0,0,0,0,0,0,0,0,0,0,0,0,0,0,0,0,0,0,0,0,0,0,0,0,0,0,0,0,0,0,0,0,0,0,0,0,0,0,0,0,0,0,0,0,0,0,0,0,0],"id":14,"left_children":[1,3,5,7,9,11,13,15,17,19,21,23,25,27,29,31,33,35,37,39,41,43,45,47,49,51,53,55,57,59,61,-1,-1,-1,-1,-1,-1,-1,-1,-1,-1,-1,-1,-1,-1,-1,-1,-1,-1,-1,-1,-1,-1,-1,-1,-1,-1,-1,-1,-1,-1,-1,-1],"loss_changes":[1.3724544E5,2.2174852E4,4.4486953E4,1.2018145E4,9.257577E3,2.1654668E4,2.0494562E4,8.368094E3,3.1092773E3,9.909563E3,6.1667197E3,1.1653419E4,9.21166E3,3.1270723E3,8.570828E3,4.5790117E3,3.8983389E3,1.1988242E3,2.8115498E3,7.244201E3,4.0841562E3,5.1541606E3,1.4134556E3,7.4862773E3,4.6688403E3,9.271902E3,9.947709E3,1.8291313E3,4.1255566E3,3.0297832E3,8.329227E3,0E0,0E0,0E0,0E0,0E0,0E0,0E0,0E0,0E0,0E0,0E0,0E0,0E0,0E0,0E0,0E0,0E0,0E0,0E0,0E0,0E0,0E0,0E0,0E0,0E0,0E0,0E0,0E0,0E0,0E0,0E0,0E0],"parents":[2147483647,0,0,1,1,2,2,3,3,4,4,5,5,6,6,7,7,8,8,9,9,10,10,11,11,12,12,13,13,14,14,15,15,16,16,17,17,18,18,19,19,20,20,21,21,22,22,23,23,24,24,25,25,26,26,27,27,28,28,29,29,30,30],"right_children":[2,4,6,8,10,12,14,16,18,20,22,24,26,28,30,32,34,36,38,40,42,44,46,48,50,52,54,56,58,60,62,-1,-1,-1,-1,-1,-1,-1,-1,-1,-1,-1,-1,-1,-1,-1,-1,-1,-1,-1,-1,-1,-1,-1,-1,-1,-1,-1,-1,-1,-1,-1,-1],"split_conditions":[3.6E0,2.6947369E1,6E0,1E0,2E0,2.9E1,2.4937246E1,2.2E0,3.3888888E0,2.2E0,9E0,7.5210526E1,2.5E0,1.76E1,5.6E0,2.5E0,4.8E0,2.2E1,1.782653E1,5.55E1,3.5E1,3.6E1,5E0,2.1E1,3.5E0,6.5E1,1E0,8.777778E0,4E0,3E0,3.9E1,-1.740491E-2,-3.5445098E-2,-2.1237977E-2,-3.795805E-3,-5.7338726E-2,-3.886887E-2,-5.3468097E-2,-1.9026032E-2,1.4747575E-2,2.608363E-1,-3.0090485E-2,1.660236E-3,4.119916E-3,3.1205822E-2,1.7951742E-1,1.2113346E0,1.0827609E-2,4.2630896E-2,-1.4904305E-2,1.0375614E-2,5.6712743E-2,1.398212E-1,7.2509716E-3,6.1707627E-2,-2.974408E-3,5.656913E-2,8.405443E-2,3.516777E-2,9.153925E-2,-1.6259847E-2,1.3417326E-1,2.8712985E-1],"split_indices":[56,17,56,16,56,17,17,56,52,44,97,70,44,17,57,45,99,17,17,10,17,17,5,17,57,8,4,84,5,62,17,0,0,0,0,0,0,0,0,0,0,0,0,0,0,0,0,0,0,0,0,0,0,0,0,0,0,0,0,0,0,0,0],"split_type":[0,0,0,0,0,0,0,0,0,0,0,0,0,0,0,0,0,0,0,0,0,0,0,0,0,0,0,0,0,0,0,0,0,0,0,0,0,0,0,0,0,0,0,0,0,0,0,0,0,0,0,0,0,0,0,0,0,0,0,0,0,0,0],"sum_hessian":[7.98985E5,5.59113E5,2.39872E5,3.7018E5,1.88933E5,1.97045E5,4.2827E4,3.03322E5,6.6858E4,7.7359E4,1.11574E5,1.4727E5,4.9775E4,2.3484E4,1.9343E4,1.43129E5,1.60193E5,3.6348E4,3.051E4,1.871E4,5.8649E4,1.11557E5,1.7E1,7.4215E4,7.3055E4,1.621E4,3.3565E4,6.041E3,1.7443E4,1.0098E4,9.245E3,8.0873E4,6.2256E4,4.4267E4,1.15926E5,2.1439E4,1.4909E4,8.049E3,2.2461E4,1.8407E4,3.03E2,4.5632E4,1.3017E4,8.9719E4,2.1838E4,5E0,1.2E1,3.9024E4,3.5191E4,3.6406E4,3.6649E4,1.1464E4,4.746E3,1.6369E4,1.7196E4,4.176E3,1.865E3,7.845E3,9.598E3,9.398E3,7E2,8.247E3,9.98E2],"tree_param":{"num_deleted":"0","num_feature":"101","num_nodes":"63","size_leaf_vector":"1"}},{"base_weights":[1.2855457E-4,-2.2468518E-1,7.07054E-1,-3.3801627E-1,2.7620712E-1,4.112701E-1,1.2212301E0,-4.6665645E-1,-1.6745802E-2,8.294591E-2,9.2318237E-1,5.304956E-1,-2.3141047E-1,9.795023E-1,2.7701364E0,-2.8480756E-1,-5.960138E-1,-2.3770371E-1,2.6692382E-1,-1.920375E-2,7.9361016E-1,8.1290376E-1,2.3960538E0,4.7684938E-1,1.8697487E0,-3.8797006E-1,7.145669E-1,2.7371326E-1,1.1597518E0,2.1875663E0,4.100444E0,-1.786439E-2,1.0333074E-2,-4.2273898E-2,-2.6175616E-2,-2.2173462E-2,-3.9786873E-3,2.5470981E-2,-9.79847E-3,2.25124E-2,-7.933167E-3,3.5312414E-2,1.8181683E-1,8.431092E-2,2.929135E-2,7.139515E-3,1.807332E-1,3.0876134E-2,3.8458281E-3,8.189952E-2,2.4706908E-1,-4.7890632E-3,-3.43855E-2,3.0914119E-2,3.3415875E-1,3.3575587E-3,1.2080359E-1,5.1484983E-2,1.1429765E-1,1.1838537E-1,-7.9547964E-2,1.498989E-1,3.0633578E-1],"categories":[],"categories_nodes":[],"categories_segments":[],"categories_sizes":[],"default_left":[0,0,0,0,0,0,0,0,0,0,0,0,0,0,0,0,0,0,0,0,0,0,0,0,0,0,0,0,0,0,0,0,0,0,0,0,0,0,0,0,0,0,0,0,0,0,0,0,0,0,0,0,0,0,0,0,0,0,0,0,0,0,0],"id":15,"left_children":[1,3,5,7,9,11,13,15,17,19,21,23,25,27,29,31,33,35,37,39,41,43,45,47,49,51,53,55,57,59,61,-1,-1,-1,-1,-1,-1,-1,-1,-1,-1,-1,-1,-1,-1,-1,-1,-1,-1,-1,-1,-1,-1,-1,-1,-1,-1,-1,-1,-1,-1,-1,-1],"loss_changes":[1.2680452E5,3.4364656E4,2.9278133E4,2.0402445E4,1.3965883E4,9.364666E3,2.6319336E4,8.292164E3,8.847396E3,6.243695E3,4.170623E3,7.405465E3,2.8326924E3,7.7361836E3,7.345125E3,5.219785E3,3.7250078E3,2.5817139E3,6.937834E3,4.923286E3,2.6813687E3,4.7389756E3,4.9114355E3,5.576414E3,2.8173965E3,1.437054E3,1.55598E3,5.4750137E3,7.0923633E3,4.4976094E3,6.4344453E3,0E0,0E0,0E0,0E0,0E0,0E0,0E0,0E0,0E0,0E0,0E0,0E0,0E0,0E0,0E0,0E0,0E0,0E0,0E0,0E0,0E0,0E0,0E0,0E0,0E0,0E0,0E0,0E0,0E0,0E0,0E0,0E0],"parents":[2147483647,0,0,1,1,2,2,3,3,4,4,5,5,6,6,7,7,8,8,9,9,10,10,11,11,12,12,13,13,14,14,15,15,16,16,17,17,18,18,19,19,20,20,21,21,22,22,23,23,24,24,25,25,26,26,27,27,28,28,29,29,30,30],"right_children":[2,4,6,8,10,12,14,16,18,20,22,24,26,28,30,32,34,36,38,40,42,44,46,48,50,52,54,56,58,60,62,-1,-1,-1,-1,-1,-1,-1,-1,-1,-1,-1,-1,-1,-1,-1,-1,-1,-1,-1,-1,-1,-1,-1,-1,-1,-1,-1,-1,-1,-1,-1,-1],"split_conditions":[3.6734693E0,1E0,2.5744856E1,2.8888888E0,3E0,1E0,5.7777777E0,2.483871E0,2.3153847E1,4.229787E1,4.6E0,7.05E0,5.6E0,7E0,3.2617836E1,2.9E1,1.925926E0,6.45E0,2.58E1,2E0,2.45E0,7.85E1,5E0,5.7E0,1E0,5E0,8.7E0,1.46E1,5.35E0,3.09E1,3.3E0,-1.786439E-2,1.0333074E-2,-4.2273898E-2,-2.6175616E-2,-2.2173462E-2,-3.9786873E-3,2.5470981E-2,-9.79847E-3,2.25124E-2,-7.933167E-3,3.5312414E-2,1.8181683E-1,8.431092E-2,2.929135E-2,7.139515E-3,1.807332E-1,3.0876134E-2,3.8458281E-3,8.189952E-2,2.4706908E-1,-4.7890632E-3,-3.43855E-2,3.0914119E-2,3.3415875E-1,3.3575587E-3,1.2080359E-1,5.1484983E-2,1.1429765E-1,1.1838537E-1,-7.9547964E-2,1.498989E-1,3.0633578E-1],"split_indices":[58,4,17,58,57,16,58,46,17,17,86,57,77,8,17,17,58,100,38,5,63,69,99,94,4,5,79,47,57,39,98,0,0,0,0,0,0,0,0,0,0,0,0,0,0,0,0,0,0,0,0,0,0,0,0,0,0,0,0,0,0,0,0],"split_type":[0,0,0,0,0,0,0,0,0,0,0,0,0,0,0,0,0,0,0,0,0,0,0,0,0,0,0,0,0,0,0,0,0,0,0,0,0,0,0,0,0,0,0,0,0,0,0,0,0,0,0,0,0,0,0,0,0,0,0,0,0,0,0],"sum_hessian":[7.97879E5,6.05364E5,1.92515E5,4.93668E5,1.11696E5,1.22213E5,7.0302E4,3.52516E5,1.41152E5,8.6006E4,2.569E4,1.03089E5,1.9124E4,6.0813E4,9.489E3,1.4653E5,2.05986E5,7.9347E4,6.1805E4,7.5198E4,1.0808E4,2.3902E4,1.788E3,9.912E4,3.969E3,1.6409E4,2.715E3,1.2372E4,4.8441E4,6.601E3,2.888E3,1.27698E5,1.8832E4,4.6382E4,1.59604E5,3.4479E4,4.4868E4,4.0558E4,2.1247E4,1.7222E4,5.7976E4,1.0487E4,3.21E2,4.931E3,1.8971E4,6.28E2,1.16E3,7.3327E4,2.5793E4,3.692E3,2.77E2,8.31E3,8.099E3,2.673E3,4.2E1,1.1285E4,1.087E3,4.3428E4,5.013E3,6.301E3,3E2,1.872E3,1.016E3],"tree_param":{"num_deleted":"0","num_feature":"101","num_nodes":"63","size_leaf_vector":"1"}},{"base_weights":[-7.965534E-4,-2.488227E-1,5.76937E-1,-3.774575E-1,3.3277129E-3,4.2461157E-1,1.5788345E0,-2.9809386E-1,-7.384442E-1,-2.4174821E-1,1.7263903E-1,2.8156528E-1,1.0735223E0,7.7464056E-1,2.1942253E0,-4.590117E-1,-1.544974E-1,-9.280198E-1,-5.1228184E-1,3.156042E-1,-4.3806E-1,1.6975375E-1,1.7083483E1,9.192521E-2,6.2782323E-1,1.3592867E1,1.0514511E0,7.208455E-1,3.259791E-1,1.9330281E0,3.3562317E0,-1.6979313E-2,-3.5393164E-2,2.2721959E-3,-1.2690285E-2,-4.9442288E-2,-2.0059137E-2,-5.8446743E-2,-1.9227935E-2,1.2270119E-2,2.3021185E-1,-3.679519E-2,-1.0259657E-2,-6.4651133E-3,1.5432686E-2,1.7414896E-1,1.1542512E0,1.3678074E-2,-1.2432159E-2,3.8413122E-2,6.498199E-3,-5.8497872E-2,1.2599027E0,7.503745E-2,3.0521357E-2,2.9306656E-2,1.20644026E-1,1.223786E-1,5.619215E-2,1.9283973E-1,5.3624745E-2],"categories":[],"categories_nodes":[],"categories_segments":[],"categories_sizes":[],"default_left":[0,0,0,0,0,0,0,0,0,0,0,0,0,0,0,0,0,0,0,0,0,0,0,0,0,0,0,0,0,0,0,0,0,0,0,0,0,0,0,0,0,0,0,0,0,0,0,0,0,0,0,0,0,0,0,0,0,0,0,0,0],"id":16,"left_children":[1,3,5,7,9,11,13,15,17,19,21,23,25,27,29,31,33,35,37,39,41,43,45,47,49,51,53,55,-1,57,59,-1,-1,-1,-1,-1,-1,-1,-1,-1,-1,-1,-1,-1,-1,-1,-1,-1,-1,-1,-1,-1,-1,-1,-1,-1,-1,-1,-1,-1,-1],"loss_changes":[1.14272875E5,1.8097188E4,3.6555023E4,1.0584535E4,7.820972E3,1.929968E4,1.5642078E4,6.998539E3,2.8542852E3,8.426298E3,5.434419E3,1.1186914E4,1.036134E4,4.2300947E3,5.427992E3,4.2442715E3,3.1780576E3,1.1602109E3,2.546185E3,6.0378486E3,3.9498281E3,4.6297725E3,1.467794E3,6.809572E3,4.215082E3,1.13393545E4,7.4275625E3,3.0934575E3,0E0,6.08534E3,3.750629E3,0E0,0E0,0E0,0E0,0E0,0E0,0E0,0E0,0E0,0E0,0E0,0E0,0E0,0E0,0E0,0E0,0E0,0E0,0E0,0E0,0E0,0E0,0E0,0E0,0E0,0E0,0E0,0E0,0E0,0E0],"parents":[2147483647,0,0,1,1,2,2,3,3,4,4,5,5,6,6,7,7,8,8,9,9,10,10,11,11,12,12,13,13,14,14,15,15,16,16,17,17,18,18,19,19,20,20,21,21,22,22,23,23,24,24,25,25,26,26,27,27,29,29,30,30],"right_children":[2,4,6,8,10,12,14,16,18,20,22,24,26,28,30,32,34,36,38,40,42,44,46,48,50,52,54,56,-1,58,60,-1,-1,-1,-1,-1,-1,-1,-1,-1,-1,-1,-1,-1,-1,-1,-1,-1,-1,-1,-1,-1,-1,-1,-1,-1,-1,-1,-1,-1,-1],"split_conditions":[3.6E0,2.6947369E1,6.4E0,1E0,2E0,3.0924875E1,2.3E1,2.2E0,3.3888888E0,2.2666667E0,9E0,4.1E0,2E-1,7.75E0,1.48E1,5E0,7.1E1,1.4444444E0,1.6454546E1,5.55E1,2.4E1,2.2E0,5E0,2.68E1,8.27E1,4E0,5.7E0,4.55E0,3.259791E-1,2.98E1,1.5333333E1,-1.6979313E-2,-3.5393164E-2,2.2721959E-3,-1.2690285E-2,-4.9442288E-2,-2.0059137E-2,-5.8446743E-2,-1.9227935E-2,1.2270119E-2,2.3021185E-1,-3.679519E-2,-1.0259657E-2,-6.4651133E-3,1.5432686E-2,1.7414896E-1,1.1542512E0,1.3678074E-2,-1.2432159E-2,3.8413122E-2,6.498199E-3,-5.8497872E-2,1.2599027E0,7.503745E-2,3.0521357E-2,2.9306656E-2,1.20644026E-1,1.223786E-1,5.619215E-2,1.9283973E-1,5.3624745E-2],"split_indices":[56,17,56,16,56,17,17,56,52,45,97,57,62,96,47,5,69,79,17,10,7,57,5,38,69,5,94,51,0,38,76,0,0,0,0,0,0,0,0,0,0,0,0,0,0,0,0,0,0,0,0,0,0,0,0,0,0,0,0,0,0],"split_type":[0,0,0,0,0,0,0,0,0,0,0,0,0,0,0,0,0,0,0,0,0,0,0,0,0,0,0,0,0,0,0,0,0,0,0,0,0,0,0,0,0,0,0,0,0,0,0,0,0,0,0,0,0,0,0,0,0,0,0,0,0],"sum_hessian":[7.97475E5,5.57945E5,2.3953E5,3.69463E5,1.88482E5,2.0792E5,3.161E4,3.02877E5,6.6586E4,7.701E4,1.11472E5,1.70366E5,3.7554E4,1.3704E4,1.7906E4,1.42823E5,1.60054E5,3.6221E4,3.0365E4,2.0059E4,5.6951E4,1.11454E5,1.8E1,1.10079E5,6.0287E4,6.5E1,3.7489E4,1.3578E4,1.26E2,1.4622E4,3.284E3,9.651E4,4.6313E4,5.3115E4,1.06939E5,3.2471E4,3.75E3,4.943E3,2.5422E4,1.9737E4,3.22E2,2.4988E4,3.1963E4,3.5348E4,7.6106E4,6E0,1.2E1,7.1791E4,3.8288E4,4.7022E4,1.3265E4,2.9E1,3.6E1,1.8569E4,1.892E4,1.2578E4,1E3,8.937E3,5.685E3,2.693E3,5.91E2],"tree_param":{"num_deleted":"0","num_feature":"101","num_nodes":"61","size_leaf_vector":"1"}},{"base_weights":[2.1659594E-5,-2.7329868E-1,4.8512697E-1,-3.777835E-1,1.757431E-1,2.3012349E-1,1.0340883E0,-1.7796683E-1,-4.8167226E-1,-1.0323453E-1,4.4588006E-1,1.7596331E-1,1.355637E0,8.757221E-1,2.2899454E0,-3.9743325E-1,3.292205E-2,-5.885218E-1,-2.7313194E-1,4.1636896E-1,-2.7355492E-1,1.4297064E-1,9.201668E-1,5.552676E-1,5.6661543E-2,1.1586473E0,4.4228024E0,6.8480563E-1,1.5141426E0,1.6995623E0,4.2303305E0,-8.702391E-3,-2.8333366E-2,3.5321224E-2,-4.3983636E-3,-2.17549E-2,-3.879715E-2,-1.9829823E-2,2.5861869E-3,8.954286E-3,7.183071E-2,-9.618249E-3,-6.664058E-2,2.3950381E-2,-1.2079439E-2,4.3960847E-2,2.1263592E-1,1.0948196E-2,4.264244E-2,-1.2840926E-2,1.2636624E-2,1.5895036E-1,4.6924915E-2,1.3804407E-1,5.6236595E-1,4.178883E-2,-1.7462665E-2,4.6184227E-2,1.0701116E-1,1.8093865E-1,6.677031E-2,1.5098049E-1,3.2641864E-1],"categories":[],"categories_nodes":[],"categories_segments":[],"categories_sizes":[],"default_left":[0,0,0,0,0,0,0,0,0,0,0,0,0,0,0,0,0,0,0,0,0,0,0,0,0,0,0,0,0,0,0,0,0,0,0,0,0,0,0,0,0,0,0,0,0,0,0,0,0,0,0,0,0,0,0,0,0,0,0,0,0,0,0],"id":17,"left_children":[1,3,5,7,9,11,13,15,17,19,21,23,25,27,29,31,33,35,37,39,41,43,45,47,49,51,53,55,57,59,61,-1,-1,-1,-1,-1,-1,-1,-1,-1,-1,-1,-1,-1,-1,-1,-1,-1,-1,-1,-1,-1,-1,-1,-1,-1,-1,-1,-1,-1,-1,-1,-1],"loss_changes":[1.05674375E5,2.3918062E4,4.0207273E4,8.584711E3,7.252031E3,1.1954877E4,1.8116508E4,6.547571E3,6.0625547E3,4.1896455E3,7.0234434E3,8.467399E3,5.434533E3,9.859488E3,1.1678184E4,2.620582E3,5.874034E3,5.1727773E3,3.6973052E3,2.8288535E3,3.0658699E3,3.855732E3,2.595998E3,4.480384E3,8.749449E3,3.760335E3,6.1261475E3,9.723055E3,6.882164E3,5.4621074E3,6.5983984E3,0E0,0E0,0E0,0E0,0E0,0E0,0E0,0E0,0E0,0E0,0E0,0E0,0E0,0E0,0E0,0E0,0E0,0E0,0E0,0E0,0E0,0E0,0E0,0E0,0E0,0E0,0E0,0E0,0E0,0E0,0E0,0E0],"parents":[2147483647,0,0,1,1,2,2,3,3,4,4,5,5,6,6,7,7,8,8,9,9,10,10,11,11,12,12,13,13,14,14,15,15,16,16,17,17,18,18,19,19,20,20,21,21,22,22,23,23,24,24,25,25,26,26,27,27,28,28,29,29,30,30],"right_children":[2,4,6,8,10,12,14,16,18,20,22,24,26,28,30,32,34,36,38,40,42,44,46,48,50,52,54,56,58,60,62,-1,-1,-1,-1,-1,-1,-1,-1,-1,-1,-1,-1,-1,-1,-1,-1,-1,-1,-1,-1,-1,-1,-1,-1,-1,-1,-1,-1,-1,-1,-1,-1],"split_conditions":[3.1666667E0,1E0,4.75E0,1E0,2.2E0,3.6E1,3.3E1,2.0857143E1,2.6E0,2E0,3.2617836E1,7.090588E1,7.258065E-1,5.605932E0,5.7777777E0,3.7333333E0,6.7222223E0,7.4626864E-3,2.75625E1,7E0,1.14E2,2.5734043E1,1.6089743E1,2.4E0,2.1710526E1,6.16E1,5.3E0,2.7333334E1,2.26E1,2.5E-1,3.3E0,-8.702391E-3,-2.8333366E-2,3.5321224E-2,-4.3983636E-3,-2.17549E-2,-3.879715E-2,-1.9829823E-2,2.5861869E-3,8.954286E-3,7.183071E-2,-9.618249E-3,-6.664058E-2,2.3950381E-2,-1.2079439E-2,4.3960847E-2,2.1263592E-1,1.0948196E-2,4.264244E-2,-1.2840926E-2,1.2636624E-2,1.5895036E-1,4.6924915E-2,1.3804407E-1,5.6236595E-1,4.178883E-2,-1.7462665E-2,4.6184227E-2,1.0701116E-1,1.8093865E-1,6.677031E-2,1.5098049E-1,3.2641864E-1],"split_indices":[58,4,56,6,57,17,17,17,56,5,17,70,61,58,58,52,67,16,17,49,68,40,43,47,17,68,25,40,17,10,98,0,0,0,0,0,0,0,0,0,0,0,0,0,0,0,0,0,0,0,0,0,0,0,0,0,0,0,0,0,0,0,0],"split_type":[0,0,0,0,0,0,0,0,0,0,0,0,0,0,0,0,0,0,0,0,0,0,0,0,0,0,0,0,0,0,0,0,0,0,0,0,0,0,0,0,0,0,0,0,0,0,0,0,0,0,0,0,0,0,0,0,0,0,0,0,0,0,0],"sum_hessian":[7.97004E5,5.09781E5,2.87223E5,4.13554E5,9.6227E4,1.96122E5,9.1101E4,1.41466E5,2.72088E5,4.7339E4,4.8888E4,1.87119E5,9.003E3,8.0901E4,1.02E4,6.9323E4,7.2143E4,1.79907E5,9.2181E4,1.1686E4,3.5653E4,2.9835E4,1.9053E4,4.4771E4,1.42348E5,8.461E3,5.42E2,6.2279E4,1.8622E4,7.822E3,2.378E3,2.9882E4,3.9441E4,1.0978E4,6.1165E4,9.8928E4,8.0979E4,6.6795E4,2.5386E4,9.482E3,2.204E3,3.3116E4,2.537E3,1.5922E4,1.3913E4,1.8823E4,2.3E2,2.1019E4,2.3752E4,5.4774E4,8.7574E4,8.3E2,7.631E3,4.37E2,1.05E2,5.4345E4,7.934E3,9.585E3,9.037E3,1.246E3,6.576E3,1.559E3,8.19E2],"tree_param":{"num_deleted":"0","num_feature":"101","num_nodes":"63","size_leaf_vector":"1"}},{"base_weights":[-7.7577785E-4,-3.0200246E-1,3.9957032E-1,-3.9446238E-1,1.0103022E-1,2.747389E-1,1.2972724E0,-2.483521E-1,-5.347574E-1,4.7621608E-2,1.342708E0,4.8535638E-2,4.9693704E-1,1.0430801E0,2.326207E0,-2.4994156E-1,9.4927436E-1,-8.718458E-1,-4.76811E-1,3.7841983E-2,4.836509E0,1.036324E0,4.4846625E0,-3.278797E-2,5.749014E-1,6.557006E-1,1.3264127E-1,1.0013665E0,5.8726377E0,1.8900775E0,5.1582613E0,-1.6313134E-2,1.7103021E-3,-4.41011E-2,2.1300395E-1,-3.078991E-2,-1.758196E-2,4.8200944E-3,-4.1278217E-2,5.2154046E-2,3.076687E-1,1.0226499E-1,1.3622493E-2,2.3121274E-1,8.0783054E-2,-1.3381212E-2,6.8001994E-3,2.5727078E-2,2.2430503E-1,2.7703209E-2,8.155546E-2,1.2712303E-2,-3.2632805E-2,6.3102506E-2,2.5528168E-2,4.6556687E-1,2.0610903E-1,1.0859295E-1,-1.9444091E-2,2.0508786E-1,3.7318543E-1],"categories":[],"categories_nodes":[],"categories_segments":[],"categories_sizes":[],"default_left":[0,0,0,0,0,0,0,0,0,0,0,0,0,0,0,0,0,0,0,0,0,0,0,0,0,0,0,0,0,0,0,0,0,0,0,0,0,0,0,0,0,0,0,0,0,0,0,0,0,0,0,0,0,0,0,0,0,0,0,0,0],"id":18,"left_children":[1,3,5,7,9,11,13,15,17,19,21,23,25,27,29,31,-1,33,35,37,39,41,43,45,47,49,51,53,55,57,59,-1,-1,-1,-1,-1,-1,-1,-1,-1,-1,-1,-1,-1,-1,-1,-1,-1,-1,-1,-1,-1,-1,-1,-1,-1,-1,-1,-1,-1,-1],"loss_changes":[9.6230414E4,1.6968438E4,3.839318E4,7.592078E3,5.6346924E3,1.5118109E4,1.0936711E4,5.5495566E3,3.6902188E3,3.8147158E3,3.3679067E3,6.380387E3,8.775836E3,6.7507383E3,1.0222699E4,3.934375E3,0E0,1.450793E3,2.804754E3,4.110716E3,8.221033E2,2.4609248E3,1.1645752E2,5.1176143E3,4.7062637E3,1.0475691E4,4.398477E3,4.2540938E3,1.6878115E3,4.6124395E3,2.6596934E3,0E0,0E0,0E0,0E0,0E0,0E0,0E0,0E0,0E0,0E0,0E0,0E0,0E0,0E0,0E0,0E0,0E0,0E0,0E0,0E0,0E0,0E0,0E0,0E0,0E0,0E0,0E0,0E0,0E0,0E0],"parents":[2147483647,0,0,1,1,2,2,3,3,4,4,5,5,6,6,7,7,8,8,9,9,10,10,11,11,12,12,13,13,14,14,15,15,17,17,18,18,19,19,20,20,21,21,22,22,23,23,24,24,25,25,26,26,27,27,28,28,29,29,30,30],"right_children":[2,4,6,8,10,12,14,16,18,20,22,24,26,28,30,32,-1,34,36,38,40,42,44,46,48,50,52,54,56,58,60,-1,-1,-1,-1,-1,-1,-1,-1,-1,-1,-1,-1,-1,-1,-1,-1,-1,-1,-1,-1,-1,-1,-1,-1,-1,-1,-1,-1,-1,-1],"split_conditions":[2.9761906E0,1E0,6E0,2.375E1,3.2222223E0,3.6E0,1E0,1.02E1,1.65E0,4.15E0,2.5E0,1E0,2.4857143E1,1.3E1,7.05E0,4E0,9.4927436E-1,2.64E1,3.2E1,1.14E2,3E0,2.601724E1,7.3E0,3E0,5.285714E0,1E0,6E0,3E1,2.8E1,1.95E1,4E0,-1.6313134E-2,1.7103021E-3,-4.41011E-2,2.1300395E-1,-3.078991E-2,-1.758196E-2,4.8200944E-3,-4.1278217E-2,5.2154046E-2,3.076687E-1,1.0226499E-1,1.3622493E-2,2.3121274E-1,8.0783054E-2,-1.3381212E-2,6.8001994E-3,2.5727078E-2,2.2430503E-1,2.7703209E-2,8.155546E-2,1.2712303E-2,-3.2632805E-2,6.3102506E-2,2.5528168E-2,4.6556687E-1,2.0610903E-1,1.0859295E-1,-1.9444091E-2,2.0508786E-1,3.7318543E-1],"split_indices":[58,4,56,39,79,56,4,97,57,57,63,4,80,56,57,96,0,47,8,68,5,40,100,97,86,4,5,9,80,71,5,0,0,0,0,0,0,0,0,0,0,0,0,0,0,0,0,0,0,0,0,0,0,0,0,0,0,0,0,0,0],"split_type":[0,0,0,0,0,0,0,0,0,0,0,0,0,0,0,0,0,0,0,0,0,0,0,0,0,0,0,0,0,0,0,0,0,0,0,0,0,0,0,0,0,0,0,0,0,0,0,0,0,0,0,0,0,0,0,0,0,0,0,0,0],"sum_hessian":[7.97962E5,4.5535E5,3.42612E5,3.70381E5,8.4969E4,3.00787E5,4.1825E4,1.81432E5,1.88949E5,8.1466E4,3.503E3,1.49051E5,1.51736E5,3.3541E4,8.284E3,1.81418E5,1.4E1,2.7714E4,1.61235E5,8.1301E4,1.65E2,3.193E3,3.1E2,1.29105E5,1.9946E4,1.05679E5,4.6057E4,3.3255E4,2.86E2,7.18E3,1.104E3,1.43007E5,3.8411E4,2.766E4,5.4E1,7.6399E4,8.4836E4,7.6138E4,5.163E3,4.3E1,1.22E2,1.375E3,1.818E3,2.95E2,1.5E1,5.399E4,7.5115E4,1.9644E4,3.02E2,9.5708E4,9.971E3,3.9882E4,6.175E3,2.1718E4,1.1537E4,9.5E1,1.91E2,6.39E3,7.9E2,7.59E2,3.45E2],"tree_param":{"num_deleted":"0","num_feature":"101","num_nodes":"61","size_leaf_vector":"1"}},{"base_weights":[-1.7528208E-3,-1.8782726E-1,5.8264726E-1,-2.8372672E-1,2.3639132E-1,3.978248E-1,1.1750777E0,-4.1851747E-1,-6.4560965E-2,7.820333E-2,8.301211E-1,3.029513E-1,1.0546286E0,1.0020726E0,2.6568964E0,-8.155583E-2,-4.816087E-1,4.472842E-2,-3.368451E-1,1.4051205E-1,-8.295249E-1,1.2596348E-1,1.0698676E0,6.1448884E-1,6.389066E-2,1.009853E0,1.0876583E1,9.0503496E-1,2.1162524E0,1.9122794E0,5.2872405E0,-6.3995877E-3,7.882714E-2,-3.7169665E-2,-2.0062214E-2,-6.5693137E-4,4.1168183E-2,-1.8070614E-2,8.213859E-2,1.3630119E-2,-1.7900264E-2,-2.5732448E-2,-9.19014E-2,-1.1380545E-2,9.4690464E-2,9.010023E-2,3.6547393E-2,3.6038715E-2,-8.516769E-3,4.6994383E-3,-1.1228973E-1,1.3572191E-2,7.175785E-2,7.681591E-1,2.777373E-1,4.0892117E-2,1.1076938E-1,2.534506E-1,8.223479E-2,1.3712268E-1,2.152234E-2,4.647186E-2,2.9570323E-1],"categories":[],"categories_nodes":[],"categories_segments":[],"categories_sizes":[],"default_left":[0,0,0,0,0,0,0,0,0,0,0,0,0,0,0,0,0,0,0,0,0,0,0,0,0,0,0,0,0,0,0,0,0,0,0,0,0,0,0,0,0,0,0,0,0,0,0,0,0,0,0,0,0,0,0,0,0,0,0,0,0,0,0],"id":19,"left_children":[1,3,5,7,9,11,13,15,17,19,21,23,25,27,29,31,33,35,37,39,41,43,45,47,49,51,53,55,57,59,61,-1,-1,-1,-1,-1,-1,-1,-1,-1,-1,-1,-1,-1,-1,-1,-1,-1,-1,-1,-1,-1,-1,-1,-1,-1,-1,-1,-1,-1,-1,-1,-1],"loss_changes":[8.6752195E4,2.461744E4,2.1095559E4,1.4579902E4,1.0478695E4,9.150625E3,1.1741953E4,6.4966484E3,5.592957E3,4.98293E3,3.9622725E3,9.556847E3,8.139217E3,4.4334062E3,9.368898E3,3.7109246E3,5.4148164E3,6.043045E3,2.6185093E3,5.428839E3,1.7958525E3,3.7278594E3,4.343287E3,4.647668E3,5.0474976E3,5.7942617E3,1.9182334E3,4.309912E3,4.5663975E3,4.591992E3,2.8783613E3,0E0,0E0,0E0,0E0,0E0,0E0,0E0,0E0,0E0,0E0,0E0,0E0,0E0,0E0,0E0,0E0,0E0,0E0,0E0,0E0,0E0,0E0,0E0,0E0,0E0,0E0,0E0,0E0,0E0,0E0,0E0,0E0],"parents":[2147483647,0,0,1,1,2,2,3,3,4,4,5,5,6,6,7,7,8,8,9,9,10,10,11,11,12,12,13,13,14,14,15,15,16,16,17,17,18,18,19,19,20,20,21,21,22,22,23,23,24,24,25,25,26,26,27,27,28,28,29,29,30,30],"right_children":[2,4,6,8,10,12,14,16,18,20,22,24,26,28,30,32,34,36,38,40,42,44,46,48,50,52,54,56,58,60,62,-1,-1,-1,-1,-1,-1,-1,-1,-1,-1,-1,-1,-1,-1,-1,-1,-1,-1,-1,-1,-1,-1,-1,-1,-1,-1,-1,-1,-1,-1,-1,-1],"split_conditions":[3.6734693E0,1E0,5.05E0,2.7317073E0,3.05E0,1E0,1E0,2.1505377E-1,2.58E1,1.14E2,7.22E2,2.3913043E0,5.75E0,8.3E0,6.6617646E0,7.4E0,1.925926E0,4.3333335E0,1.665E1,5.714286E-1,1.0444445E1,1.52E1,2.6078432E0,9E0,1.665E1,6E0,2E1,6.8E0,1.5555556E0,5.2873564E-1,5.7E2,-6.3995877E-3,7.882714E-2,-3.7169665E-2,-2.0062214E-2,-6.5693137E-4,4.1168183E-2,-1.8070614E-2,8.213859E-2,1.3630119E-2,-1.7900264E-2,-2.5732448E-2,-9.19014E-2,-1.1380545E-2,9.4690464E-2,9.010023E-2,3.6547393E-2,3.6038715E-2,-8.516769E-3,4.6994383E-3,-1.1228973E-1,1.3572191E-2,7.175785E-2,7.681591E-1,2.777373E-1,4.0892117E-2,1.1076938E-1,2.534506E-1,8.223479E-2,1.3712268E-1,2.152234E-2,4.647186E-2,2.9570323E-1],"split_indices":[58,4,57,58,57,4,4,55,38,68,21,46,87,77,58,25,58,77,42,16,10,42,46,66,42,8,8,75,86,55,21,0,0,0,0,0,0,0,0,0,0,0,0,0,0,0,0,0,0,0,0,0,0,0,0,0,0,0,0,0,0,0,0],"split_type":[0,0,0,0,0,0,0,0,0,0,0,0,0,0,0,0,0,0,0,0,0,0,0,0,0,0,0,0,0,0,0,0,0,0,0,0,0,0,0,0,0,0,0,0,0,0,0,0,0,0,0,0,0,0,0,0,0,0,0,0,0,0,0],"sum_hessian":[7.97779E5,6.05111E5,1.92668E5,4.93541E5,1.1157E5,1.46855E5,4.5813E4,3.05594E5,1.87947E5,8.8099E4,2.3471E4,1.28321E5,1.8534E4,4.1025E4,4.788E3,4.8195E4,2.57399E5,1.34116E5,5.3831E4,8.2441E4,5.658E3,5.962E3,1.7509E4,5.5714E4,7.2607E4,1.8451E4,8.3E1,3.774E4,3.285E3,3.733E3,1.055E3,4.6883E4,1.312E3,6.0456E4,1.96943E5,1.24839E5,9.277E3,5.3172E4,6.59E2,6.5173E4,1.7268E4,4.313E3,1.345E3,4.969E3,9.93E2,5.539E3,1.197E4,4.9069E4,6.645E3,7.1674E4,9.33E2,6.744E3,1.1707E4,4.4E1,3.9E1,3.5387E4,2.353E3,4.51E2,2.834E3,2.392E3,1.341E3,1.33E2,9.22E2],"tree_param":{"num_deleted":"0","num_feature":"101","num_nodes":"63","size_leaf_vector":"1"}},{"base_weights":[-5.6320266E-4,-1.4516762E-1,7.0252776E-1,-2.9644537E-1,1.2192892E-1,4.602566E-1,1.3878096E0,-3.5178283E-1,2.70674E-1,-8.433085E-2,3.4993127E-1,2.2449814E-1,8.9603394E-1,1.1189307E0,2.989799E0,-2.917591E-1,-6.155498E-1,-1.7662111E-1,4.908784E-1,1.9971393E-2,-5.759974E-1,1.057099E0,2.7361298E-1,-1.2986754E-1,4.032906E-1,2.076927E-1,1.1036003E0,1.1077251E0,1.0002441E0,3.5670424E0,6.8175405E-1,8.9636855E-3,-1.633408E-2,-4.0467266E-2,-2.1220407E-2,-5.8654887E-3,-1.1794527E-1,-1.7827128E-3,3.937268E-2,-6.8388893E-3,1.5549028E-2,-4.271738E-2,-1.8880924E-2,4.906006E-2,1.9847536E-1,2.8727634E-2,5.59465E-3,4.7783097E-3,-3.4920704E-2,3.665995E-2,5.5704005E-3,2.0843508E-2,-3.571671E-2,1.1348432E-1,4.990765E-2,6.823981E-2,2.4374235E-2,4.534932E-1,1.6541785E-1,5.0682034E-2,-1.1473812E-1],"categories":[],"categories_nodes":[],"categories_segments":[],"categories_sizes":[],"default_left":[0,0,0,0,0,0,0,0,0,0,0,0,0,0,0,0,0,0,0,0,0,0,0,0,0,0,0,0,0,0,0,0,0,0,0,0,0,0,0,0,0,0,0,0,0,0,0,0,0,0,0,0,0,0,0,0,0,0,0,0,0],"id":20,"left_children":[1,3,5,7,9,11,13,15,17,19,21,23,25,27,29,31,33,35,37,39,41,43,45,47,49,51,53,55,-1,57,59,-1,-1,-1,-1,-1,-1,-1,-1,-1,-1,-1,-1,-1,-1,-1,-1,-1,-1,-1,-1,-1,-1,-1,-1,-1,-1,-1,-1,-1,-1],"loss_changes":[8.117617E4,2.6757883E4,2.2611648E4,1.326809E4,1.1260936E4,1.0337926E4,1.5319422E4,6.098199E3,3.702202E3,6.4472827E3,6.137675E3,4.137415E3,5.047037E3,6.422574E3,6.807883E3,5.1617715E3,2.644545E3,1.6044598E3,3.9332178E3,4.731249E3,1.2145337E3,2.4443477E3,4.995877E3,2.806912E3,4.179304E3,1.5790791E3,3.3348008E3,4.8536367E3,0E0,5.7894453E3,1.0137726E3,0E0,0E0,0E0,0E0,0E0,0E0,0E0,0E0,0E0,0E0,0E0,0E0,0E0,0E0,0E0,0E0,0E0,0E0,0E0,0E0,0E0,0E0,0E0,0E0,0E0,0E0,0E0,0E0,0E0,0E0],"parents":[2147483647,0,0,1,1,2,2,3,3,4,4,5,5,6,6,7,7,8,8,9,9,10,10,11,11,12,12,13,13,14,14,15,15,16,16,17,17,18,18,19,19,20,20,21,21,22,22,23,23,24,24,25,25,26,26,27,27,29,29,30,30],"right_children":[2,4,6,8,10,12,14,16,18,20,22,24,26,28,30,32,34,36,38,40,42,44,46,48,50,52,54,56,-1,58,60,-1,-1,-1,-1,-1,-1,-1,-1,-1,-1,-1,-1,-1,-1,-1,-1,-1,-1,-1,-1,-1,-1,-1,-1,-1,-1,-1,-1,-1,-1],"split_conditions":[4.3333335E0,2.8888888E0,2.8592592E1,3.5E1,2.4E1,4.6056337E0,5.7777777E0,1E0,2.0068965E0,9.7402596E-1,2E0,1.909756E1,1.782653E1,1.6666666E1,8.620689E0,2E0,2.15E0,1.2E1,1E0,5.466667E-1,1.8857143E1,1.09E2,7.5375E1,5E0,3.243243E-1,3.030303E-1,5.928571E0,2.7333334E1,1.0002441E0,1.12E1,2.7444445E1,8.9636855E-3,-1.633408E-2,-4.0467266E-2,-2.1220407E-2,-5.8654887E-3,-1.1794527E-1,-1.7827128E-3,3.937268E-2,-6.8388893E-3,1.5549028E-2,-4.271738E-2,-1.8880924E-2,4.906006E-2,1.9847536E-1,2.8727634E-2,5.59465E-3,4.7783097E-3,-3.4920704E-2,3.665995E-2,5.5704005E-3,2.0843508E-2,-3.571671E-2,1.1348432E-1,4.990765E-2,6.823981E-2,2.4374235E-2,4.534932E-1,1.6541785E-1,5.0682034E-2,-1.1473812E-1],"split_indices":[56,58,17,17,17,58,58,16,58,16,5,17,17,99,67,5,57,65,4,61,17,14,70,5,55,16,67,80,0,43,29,0,0,0,0,0,0,0,0,0,0,0,0,0,0,0,0,0,0,0,0,0,0,0,0,0,0,0,0,0,0],"split_type":[0,0,0,0,0,0,0,0,0,0,0,0,0,0,0,0,0,0,0,0,0,0,0,0,0,0,0,0,0,0,0,0,0,0,0,0,0,0,0,0,0,0,0,0,0,0,0,0,0,0,0,0,0,0,0,0,0,0,0,0,0],"sum_hessian":[7.98426E5,6.62227E5,1.36199E5,4.22776E5,2.39451E5,1.00626E5,3.5573E4,3.85191E5,3.7585E4,1.2572E5,1.13731E5,6.53E4,3.5326E4,3.0462E4,5.111E3,3.13787E5,7.1404E4,1.2399E4,2.5186E4,1.03718E5,2.2002E4,1.1077E4,1.02654E5,2.1898E4,4.3402E4,8.185E3,2.7141E4,3.0445E4,1.7E1,4.088E3,1.023E3,2.1658E4,2.92129E5,3.5454E4,3.595E4,1.2072E4,3.27E2,9.075E3,1.6111E4,6.7409E4,3.6309E4,9.154E3,1.2848E4,1.0797E4,2.8E2,3.5881E4,6.6773E4,1.5681E4,6.217E3,2.0373E4,2.3029E4,6.672E3,1.513E3,2.249E3,2.4892E4,2.1523E4,8.922E3,1.82E2,3.906E3,9.21E2,1.02E2],"tree_param":{"num_deleted":"0","num_feature":"101","num_nodes":"61","size_leaf_vector":"1"}},{"base_weights":[1.0250348E-3,-1.9892667E-1,4.665273E-1,-4.3560606E-1,-9.202224E-2,3.444773E-1,1.2688454E0,-3.2204917E-1,-6.118339E-1,-2.1269697E-1,1.256034E-1,1.8444258E-1,8.1568193E-1,5.7719105E-1,1.7986306E0,-5.594327E-1,-2.3367071E-1,-8.010283E-1,-4.5115146E-1,2.6258567E-1,-2.708394E-1,3.0747497E-1,-4.8106514E-2,3.1481898E-1,-2.0550893E-1,1.3626605E0,5.5054635E-1,3.759353E-1,1.5197446E0,1.9012235E0,-5.415999E-1,-9.208838E-3,-3.96211E-2,-1.7446952E-2,1.3920914E-4,-3.739379E-2,-7.072253E-2,-5.927795E-2,-2.0002311E-2,1.1481175E-2,1.2859254E-1,-1.6353747E-2,1.180237E-2,1.44875E-2,1.2273438E-1,-4.973862E-3,9.1468E-2,5.174828E-3,2.6071588E-2,6.400818E-1,-1.0760552E-2,4.434673E-2,1.248614E-1,4.559346E-3,4.859969E-2,1.1968463E-2,8.494039E-2,2.1677108E-1,4.4057023E-2,7.744686E-2,1.2954675E-1,1.2247397E-1,-1.0077675E-1],"categories":[],"categories_nodes":[],"categories_segments":[],"categories_sizes":[],"default_left":[0,0,0,0,0,0,0,0,0,0,0,0,0,0,0,0,0,0,0,0,0,0,0,0,0,0,0,0,0,0,0,0,0,0,0,0,0,0,0,0,0,0,0,0,0,0,0,0,0,0,0,0,0,0,0,0,0,0,0,0,0,0,0],"id":21,"left_children":[1,3,5,7,9,11,13,15,17,19,21,23,25,27,29,31,33,35,37,39,41,43,45,47,49,51,53,55,57,59,61,-1,-1,-1,-1,-1,-1,-1,-1,-1,-1,-1,-1,-1,-1,-1,-1,-1,-1,-1,-1,-1,-1,-1,-1,-1,-1,-1,-1,-1,-1,-1,-1],"loss_changes":[7.421538E4,1.4112492E4,2.3459969E4,3.4726719E3,1.0090389E4,1.5681072E4,1.1589949E4,2.213997E3,2.0668809E3,6.8302783E3,4.3300054E3,7.8920938E3,7.644699E3,2.6022246E3,4.3016797E3,2.5030703E3,2.096276E3,1.01697656E3,1.3796475E3,2.049835E3,6.2776357E3,2.547273E3,6.761027E3,5.079335E3,4.910046E3,9.286965E3,6.8743916E3,2.0424773E3,4.3362793E3,4.165039E3,3.3246113E3,0E0,0E0,0E0,0E0,0E0,0E0,0E0,0E0,0E0,0E0,0E0,0E0,0E0,0E0,0E0,0E0,0E0,0E0,0E0,0E0,0E0,0E0,0E0,0E0,0E0,0E0,0E0,0E0,0E0,0E0,0E0,0E0],"parents":[2147483647,0,0,1,1,2,2,3,3,4,4,5,5,6,6,7,7,8,8,9,9,10,10,11,11,12,12,13,13,14,14,15,15,16,16,17,17,18,18,19,19,20,20,21,21,22,22,23,23,24,24,25,25,26,26,27,27,28,28,29,29,30,30],"right_children":[2,4,6,8,10,12,14,16,18,20,22,24,26,28,30,32,34,36,38,40,42,44,46,48,50,52,54,56,58,60,62,-1,-1,-1,-1,-1,-1,-1,-1,-1,-1,-1,-1,-1,-1,-1,-1,-1,-1,-1,-1,-1,-1,-1,-1,-1,-1,-1,-1,-1,-1,-1,-1],"split_conditions":[3.6E0,2.0857143E1,6.4E0,2.39E1,2.5E0,2.9E1,2.3E1,1.6454546E1,2.2E0,8.6E0,2.48E1,2.76E1,2.6E0,4.1666665E0,8.078E3,9.7E0,3.6E0,1E0,2.3121952E1,3.35E1,3.538342E1,8.874172E-1,4.7E1,2.1E1,2.2E0,4.189655E0,1E0,8.3E0,2.0794415E0,1E0,3.22E1,-9.208838E-3,-3.96211E-2,-1.7446952E-2,1.3920914E-4,-3.739379E-2,-7.072253E-2,-5.927795E-2,-2.0002311E-2,1.1481175E-2,1.2859254E-1,-1.6353747E-2,1.180237E-2,1.44875E-2,1.2273438E-1,-4.973862E-3,9.1468E-2,5.174828E-3,2.6071588E-2,6.400818E-1,-1.0760552E-2,4.434673E-2,1.248614E-1,4.559346E-3,4.859969E-2,1.1968463E-2,8.494039E-2,2.1677108E-1,4.4057023E-2,7.744686E-2,1.2954675E-1,1.2247397E-1,-1.0077675E-1],"split_indices":[56,17,56,39,56,17,17,17,56,41,38,38,44,35,21,42,95,59,40,31,17,61,17,17,65,12,4,77,12,4,38,0,0,0,0,0,0,0,0,0,0,0,0,0,0,0,0,0,0,0,0,0,0,0,0,0,0,0,0,0,0,0,0],"split_type":[0,0,0,0,0,0,0,0,0,0,0,0,0,0,0,0,0,0,0,0,0,0,0,0,0,0,0,0,0,0,0,0,0,0,0,0,0,0,0,0,0,0,0,0,0,0,0,0,0,0,0,0,0,0,0,0,0,0,0,0,0,0,0],"sum_hessian":[7.97344E5,5.57763E5,2.39581E5,1.73544E5,3.84219E5,2.07949E5,3.1632E4,1.0554E5,6.8004E4,2.47165E5,1.37054E5,1.5523E5,5.2719E4,1.3721E4,1.7911E4,2.8631E4,7.6909E4,3.1229E4,3.6775E4,2.694E4,2.20225E5,6.6954E4,7.01E4,1.16335E5,3.8895E4,1.721E4,3.5509E4,1.1308E4,2.413E3,1.7159E4,7.52E2,1.0968E4,1.7663E4,5.1704E4,2.5205E4,2.8741E4,2.488E3,2.391E3,3.4384E4,2.6562E4,3.78E2,1.98233E5,2.1992E4,6.6407E4,5.47E2,6.8234E4,1.866E3,5.7513E4,5.8822E4,2.8E1,3.8867E4,1.2127E4,5.083E3,1.6991E4,1.8518E4,1.0251E4,1.057E3,4.45E2,1.968E3,1.136E4,5.799E3,2.48E2,5.04E2],"tree_param":{"num_deleted":"0","num_feature":"101","num_nodes":"63","size_leaf_vector":"1"}},{"base_weights":[-8.7878597E-4,-1.6821307E-1,5.0450414E-1,-2.5339195E-1,2.0640957E-1,3.7905344E-1,1.3605312E0,-4.1459483E-1,-1.2506682E-1,-1.00304835E-1,4.5019773E-1,3.2093954E-1,1.3695087E0,6.585862E-1,2.1120417E0,6.1784185E-2,-4.6273136E-1,-2.7008367E-1,6.314962E-2,-2.7491828E-2,-1.2188447E0,1.3230275E0,3.47179E-1,7.4679464E-1,1.9482656E-1,1.2155132E0,3.8746288E0,6.1527085E-1,4.4751916E0,1.9212406E0,4.4456744E0,2.8735284E-2,-4.5696134E-3,-3.3905547E-2,-1.951184E-2,-9.034856E-3,-2.3146085E-2,1.269454E-2,-1.6397279E-2,1.1659894E-3,-7.237136E-2,-2.9320791E-2,-9.957828E-2,4.899077E-2,1.6814476E-1,5.4847444E-3,3.6637004E-2,2.6967956E-2,8.2491115E-2,2.2428228E-2,-8.619609E-4,4.8318453E-2,1.6210507E-1,1.1686871E-1,5.4223824E-1,2.8061E-2,1.850966E-1,1.4013013E-1,3.0885792E-1,1.7731191E-1,8.555346E-2,1.4603938E-1,3.3521947E-1],"categories":[],"categories_nodes":[],"categories_segments":[],"categories_sizes":[],"default_left":[0,0,0,0,0,0,0,0,0,0,0,0,0,0,0,0,0,0,0,0,0,0,0,0,0,0,0,0,0,0,0,0,0,0,0,0,0,0,0,0,0,0,0,0,0,0,0,0,0,0,0,0,0,0,0,0,0,0,0,0,0,0,0],"id":22,"left_children":[1,3,5,7,9,11,13,15,17,19,21,23,25,27,29,31,33,35,37,39,41,43,45,47,49,51,53,55,57,59,61,-1,-1,-1,-1,-1,-1,-1,-1,-1,-1,-1,-1,-1,-1,-1,-1,-1,-1,-1,-1,-1,-1,-1,-1,-1,-1,-1,-1,-1,-1,-1,-1],"loss_changes":[6.746628E4,1.9124807E4,2.1309832E4,1.0101219E4,8.302016E3,9.961684E3,1.3378328E4,4.9630312E3,7.4209097E3,4.004374E3,5.5616885E3,8.780023E3,3.6951562E3,2.165041E3,5.4448047E3,1.5606868E3,3.0687812E3,2.6468535E3,8.826357E3,3.3309446E3,1.4670908E3,4.5679707E3,5.0661987E3,6.9958574E3,6.78732E3,4.5598467E3,5.920089E3,2.1613691E3,4.0025342E2,3.861207E3,3.16542E3,0E0,0E0,0E0,0E0,0E0,0E0,0E0,0E0,0E0,0E0,0E0,0E0,0E0,0E0,0E0,0E0,0E0,0E0,0E0,0E0,0E0,0E0,0E0,0E0,0E0,0E0,0E0,0E0,0E0,0E0,0E0,0E0],"parents":[2147483647,0,0,1,1,2,2,3,3,4,4,5,5,6,6,7,7,8,8,9,9,10,10,11,11,12,12,13,13,14,14,15,15,16,16,17,17,18,18,19,19,20,20,21,21,22,22,23,23,24,24,25,25,26,26,27,27,28,28,29,29,30,30],"right_children":[2,4,6,8,10,12,14,16,18,20,22,24,26,28,30,32,34,36,38,40,42,44,46,48,50,52,54,56,58,60,62,-1,-1,-1,-1,-1,-1,-1,-1,-1,-1,-1,-1,-1,-1,-1,-1,-1,-1,-1,-1,-1,-1,-1,-1,-1,-1,-1,-1,-1,-1,-1,-1],"split_conditions":[3.637097E0,1E0,6.6E0,2.4225352E0,2.2E0,3.5E1,2.45E1,2.857143E-1,2.34E1,1.14E2,7.4617645E1,7.057143E1,1.85E0,1.3E1,1E0,1E0,1.8141593E0,1.6216215E-1,2.58E1,6E0,9.2E0,3.3333333E0,3.2617836E1,2.7E1,4E0,5.1E0,1.8666666E1,7.2E0,1.2E0,4.1666665E0,2.7333333E0,2.8735284E-2,-4.5696134E-3,-3.3905547E-2,-1.951184E-2,-9.034856E-3,-2.3146085E-2,1.269454E-2,-1.6397279E-2,1.1659894E-3,-7.237136E-2,-2.9320791E-2,-9.957828E-2,4.899077E-2,1.6814476E-1,5.4847444E-3,3.6637004E-2,2.6967956E-2,8.2491115E-2,2.2428228E-2,-8.619609E-4,4.8318453E-2,1.6210507E-1,1.1686871E-1,5.4223824E-1,2.8061E-2,1.850966E-1,1.4013013E-1,3.0885792E-1,1.7731191E-1,8.555346E-2,1.4603938E-1,3.3521947E-1],"split_indices":[58,4,56,58,57,17,17,61,17,68,70,70,63,56,59,6,58,16,38,50,10,58,17,17,5,57,41,96,75,58,10,0,0,0,0,0,0,0,0,0,0,0,0,0,0,0,0,0,0,0,0,0,0,0,0,0,0,0,0,0,0,0,0],"split_type":[0,0,0,0,0,0,0,0,0,0,0,0,0,0,0,0,0,0,0,0,0,0,0,0,0,0,0,0,0,0,0,0,0,0,0,0,0,0,0,0,0,0,0,0,0,0,0,0,0,0,0,0,0,0,0,0,0,0,0,0,0,0,0],"sum_hessian":[7.97775E5,5.99334E5,1.98441E5,4.88307E5,1.11027E5,1.73078E5,2.5363E4,2.16427E5,2.7188E5,4.9168E4,6.1859E4,1.63487E5,9.591E3,1.3115E4,1.2248E4,1.9862E4,1.96565E5,1.53563E5,1.18317E5,4.6164E4,3.004E3,6.529E3,5.533E4,3.7352E4,1.26135E5,9.037E3,5.54E2,1.2969E4,1.46E2,1.1324E4,9.24E2,4.567E3,1.5295E4,4.9498E4,1.47067E5,1.04928E5,4.8635E4,7.953E4,3.8787E4,4.457E4,1.594E3,1.653E3,1.351E3,5.59E3,9.39E2,3.4241E4,2.1089E4,3.0376E4,6.976E3,5.7425E4,6.871E4,8.049E3,9.88E2,4.55E2,9.9E1,1.2747E4,2.22E2,7.5E1,7.1E1,1.295E3,1.0029E4,5.53E2,3.71E2],"tree_param":{"num_deleted":"0","num_feature":"101","num_nodes":"63","size_leaf_vector":"1"}},{"base_weights":[1.6495488E-3,-1.2636322E-1,6.224551E-1,-2.6028195E-1,1.10065594E-1,3.193616E-1,1.0659108E0,-3.3804634E-1,7.8188814E-2,-7.4673384E-2,3.1518173E-1,1.14229344E-1,6.942639E-1,8.705325E-1,2.1829238E0,-2.8452787E-1,-5.730818E-1,2.1702887E-1,-3.0235228E-1,1.9746544E-2,-5.207732E-1,9.692829E-1,2.4508561E-1,2.9301625E-1,-2.2360055E-1,1.548307E-1,9.1285336E-1,1.1959391E0,5.0767136E-1,1.5626986E0,3.3460233E0,1.3866621E-3,-1.6164875E-2,-3.5779305E-2,-1.7662784E-2,9.655179E-3,2.1373916E-1,1.6103797E-1,-1.6268035E-2,1.6263356E-2,-5.0259433E-3,-3.9182186E-2,-1.670522E-2,4.524129E-2,2.0583355E-1,7.891475E-3,3.954021E-2,-7.700142E-4,3.672239E-2,4.2906157E-3,-3.3943523E-2,1.7443663E-2,-3.6815327E-2,4.2145446E-2,1.515222E-1,1.7009124E-1,5.409899E-2,1.3843881E-2,6.496411E-2,8.971401E-2,-8.656652E-2,1.582402E-1,6.277603E-1],"categories":[],"categories_nodes":[],"categories_segments":[],"categories_sizes":[],"default_left":[0,0,0,0,0,0,0,0,0,0,0,0,0,0,0,0,0,0,0,0,0,0,0,0,0,0,0,0,0,0,0,0,0,0,0,0,0,0,0,0,0,0,0,0,0,0,0,0,0,0,0,0,0,0,0,0,0,0,0,0,0,0,0],"id":23,"left_children":[1,3,5,7,9,11,13,15,17,19,21,23,25,27,29,31,33,35,37,39,41,43,45,47,49,51,53,55,57,59,61,-1,-1,-1,-1,-1,-1,-1,-1,-1,-1,-1,-1,-1,-1,-1,-1,-1,-1,-1,-1,-1,-1,-1,-1,-1,-1,-1,-1,-1,-1,-1,-1],"loss_changes":[6.345203E4,2.095839E4,1.8345477E4,1.1122719E4,9.070027E3,6.23526E3,1.2091574E4,4.322172E3,4.1713286E3,5.3045317E3,5.200127E3,3.1654326E3,3.380829E3,5.568578E3,5.9449727E3,3.3885527E3,1.9961191E3,5.614588E3,1.7115569E3,3.8190703E3,1.0791108E3,2.2228994E3,4.878028E3,4.6659014E3,2.555011E3,1.4302546E3,3.0193164E3,6.246715E3,4.0740308E3,4.108698E3,4.745045E3,0E0,0E0,0E0,0E0,0E0,0E0,0E0,0E0,0E0,0E0,0E0,0E0,0E0,0E0,0E0,0E0,0E0,0E0,0E0,0E0,0E0,0E0,0E0,0E0,0E0,0E0,0E0,0E0,0E0,0E0,0E0,0E0],"parents":[2147483647,0,0,1,1,2,2,3,3,4,4,5,5,6,6,7,7,8,8,9,9,10,10,11,11,12,12,13,13,14,14,15,15,16,16,17,17,18,18,19,19,20,20,21,21,22,22,23,23,24,24,25,25,26,26,27,27,28,28,29,29,30,30],"right_children":[2,4,6,8,10,12,14,16,18,20,22,24,26,28,30,32,34,36,38,40,42,44,46,48,50,52,54,56,58,60,62,-1,-1,-1,-1,-1,-1,-1,-1,-1,-1,-1,-1,-1,-1,-1,-1,-1,-1,-1,-1,-1,-1,-1,-1,-1,-1,-1,-1,-1,-1,-1,-1],"split_conditions":[4.3333335E0,2.8888888E0,2.55E1,3.1E1,2.4E1,4.6056337E0,5.7777777E0,1E0,6.875E0,1E0,2E0,5E0,1.782653E1,2.74E1,3.2E1,1.0232142E1,3.5034246E0,7.35E1,6.472078E1,7.12E1,1.8857143E1,1E0,8.3E0,1.6396272E-1,7.494E1,3.030303E-1,1.5166667E1,4.2E0,3.6E1,3E0,5.85E0,1.3866621E-3,-1.6164875E-2,-3.5779305E-2,-1.7662784E-2,9.655179E-3,2.1373916E-1,1.6103797E-1,-1.6268035E-2,1.6263356E-2,-5.0259433E-3,-3.9182186E-2,-1.670522E-2,4.524129E-2,2.0583355E-1,7.891475E-3,3.954021E-2,-7.700142E-4,3.672239E-2,4.2906157E-3,-3.3943523E-2,1.7443663E-2,-3.6815327E-2,4.2145446E-2,1.515222E-1,1.7009124E-1,5.409899E-2,1.3843881E-2,6.496411E-2,8.971401E-2,-8.656652E-2,1.582402E-1,6.277603E-1],"split_indices":[56,58,17,17,17,58,58,16,74,16,5,5,17,38,17,73,52,10,70,70,17,59,100,19,70,16,76,65,17,45,96,0,0,0,0,0,0,0,0,0,0,0,0,0,0,0,0,0,0,0,0,0,0,0,0,0,0,0,0,0,0,0,0],"split_type":[0,0,0,0,0,0,0,0,0,0,0,0,0,0,0,0,0,0,0,0,0,0,0,0,0,0,0,0,0,0,0,0,0,0,0,0,0,0,0,0,0,0,0,0,0,0,0,0,0,0,0,0,0,0,0,0,0,0,0,0,0,0,0],"sum_hessian":[7.98427E5,6.61934E5,1.36493E5,4.22577E5,2.39357E5,8.1079E4,5.5414E4,3.43628E5,7.8949E4,1.25934E5,1.13423E5,5.2406E4,2.8673E4,4.7166E4,8.248E3,2.79897E5,6.3731E4,5.7845E4,2.1104E4,1.03936E5,2.1998E4,1.0977E4,1.02446E5,3.427E4,1.8136E4,8.269E3,2.0404E4,2.4865E4,2.2301E4,5.381E3,2.867E3,3.0913E4,2.48984E5,3.8664E4,2.5067E4,5.7507E4,3.38E2,1.36E2,2.0968E4,2.9357E4,7.4579E4,9.133E3,1.2865E4,1.0758E4,2.19E2,8.8325E4,1.4121E4,2.0175E4,1.4095E4,1.0798E4,7.338E3,6.791E3,1.478E3,1.9753E4,6.51E2,1.22E3,2.3645E4,1.7268E4,5.033E3,5.028E3,3.53E2,2.813E3,5.4E1],"tree_param":{"num_deleted":"0","num_feature":"101","num_nodes":"63","size_leaf_vector":"1"}},{"base_weights":[1.6463872E-4,-1.3257259E-1,5.400072E-1,-2.6659307E-1,3.8323335E-2,2.6657188E-1,9.3227005E-1,-1.980884E-1,-5.7769144E-1,-1.23038225E-1,2.4345945E-1,-7.315569E-4,5.03776E-1,7.400689E-1,1.6996897E0,-2.682038E-1,1.4746828E-1,-6.9862306E-1,-2.8413886E-1,-4.810906E-2,-4.7839838E-1,3.5627887E-1,-1.7593299E-1,-4.9473874E-2,1.3851202E0,6.9555956E-1,9.892079E-2,1.0727694E0,2.8166908E-1,1.4133633E0,2.8199914E0,-2.9861694E-3,-1.930909E-2,-1.0591536E-2,2.0122273E-2,-2.7502984E-2,-4.225346E-2,-1.7388597E-2,9.202497E-2,6.0661014E-2,-3.7674461E-3,-3.5528373E-2,-1.3420778E-2,1.6733294E-2,1.2624437E-1,-1.4796655E-2,8.178628E-2,-9.5855985E-3,1.9358737E-2,1.14864565E-1,-3.5202893E-4,3.1660907E-2,1.1310079E-1,-6.490294E-2,1.1720159E-2,1.4733815E-1,4.811064E-2,1.0091623E-2,1.4998068E-1,9.920927E-2,3.19426E-2,1.6993393E-1,1.4871279E-3],"categories":[],"categories_nodes":[],"categories_segments":[],"categories_sizes":[],"default_left":[0,0,0,0,0,0,0,0,0,0,0,0,0,0,0,0,0,0,0,0,0,0,0,0,0,0,0,0,0,0,0,0,0,0,0,0,0,0,0,0,0,0,0,0,0,0,0,0,0,0,0,0,0,0,0,0,0,0,0,0,0,0,0],"id":24,"left_children":[1,3,5,7,9,11,13,15,17,19,21,23,25,27,29,31,33,35,37,39,41,43,45,47,49,51,53,55,57,59,61,-1,-1,-1,-1,-1,-1,-1,-1,-1,-1,-1,-1,-1,-1,-1,-1,-1,-1,-1,-1,-1,-1,-1,-1,-1,-1,-1,-1,-1,-1,-1,-1],"loss_changes":[5.7202547E4,1.4675143E4,1.6897672E4,7.653092E3,9.322102E3,5.886299E3,9.543301E3,7.1307725E3,2.3003027E3,4.1971396E3,5.8669326E3,2.9484084E3,3.818956E3,7.892252E3,4.152793E3,6.017713E3,4.548141E3,9.979551E2,2.5570706E3,4.472862E3,1.3378921E3,4.5785527E3,5.7146885E3,2.6189656E3,1.8834907E3,3.2576162E3,2.9928738E3,6.2095547E3,4.7221113E3,4.562797E3,4.2574727E3,0E0,0E0,0E0,0E0,0E0,0E0,0E0,0E0,0E0,0E0,0E0,0E0,0E0,0E0,0E0,0E0,0E0,0E0,0E0,0E0,0E0,0E0,0E0,0E0,0E0,0E0,0E0,0E0,0E0,0E0,0E0,0E0],"parents":[2147483647,0,0,1,1,2,2,3,3,4,4,5,5,6,6,7,7,8,8,9,9,10,10,11,11,12,12,13,13,14,14,15,15,16,16,17,17,18,18,19,19,20,20,21,21,22,22,23,23,24,24,25,25,26,26,27,27,28,28,29,29,30,30],"right_children":[2,4,6,8,10,12,14,16,18,20,22,24,26,28,30,32,34,36,38,40,42,44,46,48,50,52,54,56,58,60,62,-1,-1,-1,-1,-1,-1,-1,-1,-1,-1,-1,-1,-1,-1,-1,-1,-1,-1,-1,-1,-1,-1,-1,-1,-1,-1,-1,-1,-1,-1,-1,-1],"split_conditions":[4.2E0,2.6E0,2.5138462E1,1E0,2.5E1,4.1E0,6.5E0,1E0,3.5454545E0,1E0,2.76E1,1.74E2,5E0,2.74E1,1.46E1,2.22E1,7E0,1.338837E-1,7.25E0,3.2E0,1.909756E1,5.35E0,4.4E1,6.0902256E-1,1.0545455E1,1E0,4.2857143E-1,4E0,4.5555553E0,2.94E1,2.1E0,-2.9861694E-3,-1.930909E-2,-1.0591536E-2,2.0122273E-2,-2.7502984E-2,-4.225346E-2,-1.7388597E-2,9.202497E-2,6.0661014E-2,-3.7674461E-3,-3.5528373E-2,-1.3420778E-2,1.6733294E-2,1.2624437E-1,-1.4796655E-2,8.178628E-2,-9.5855985E-3,1.9358737E-2,1.14864565E-1,-3.5202893E-4,3.1660907E-2,1.1310079E-1,-6.490294E-2,1.1720159E-2,1.4733815E-1,4.811064E-2,1.0091623E-2,1.4998068E-1,9.920927E-2,3.19426E-2,1.6993393E-1,1.4871279E-3],"split_indices":[56,56,17,16,17,57,56,4,51,16,80,9,5,38,47,39,8,18,95,65,17,57,17,61,43,4,61,65,86,38,28,0,0,0,0,0,0,0,0,0,0,0,0,0,0,0,0,0,0,0,0,0,0,0,0,0,0,0,0,0,0,0,0],"split_type":[0,0,0,0,0,0,0,0,0,0,0,0,0,0,0,0,0,0,0,0,0,0,0,0,0,0,0,0,0,0,0,0,0,0,0,0,0,0,0,0,0,0,0,0,0,0,0,0,0,0,0,0,0,0,0,0,0,0,0,0,0,0,0],"sum_hessian":[7.98278E5,6.40734E5,1.57544E5,3.59111E5,2.81623E5,9.2834E4,6.471E4,2.94306E5,6.4805E4,1.5763E5,1.23993E5,4.3648E4,4.9186E4,5.1751E4,1.2959E4,2.44663E5,4.9643E4,4.5896E4,1.8909E4,1.30182E5,2.7448E4,9.7709E4,2.6284E4,4.2166E4,1.482E3,3.3375E4,1.5811E4,2.9986E4,2.1765E4,1.0323E4,2.636E3,8.8419E4,1.56244E5,2.0606E4,2.9037E4,2.2786E4,2.311E4,1.836E4,5.49E2,2.751E3,1.27431E5,1.3034E4,1.4414E4,9.6746E4,9.63E2,2.4652E4,1.632E3,3.1806E4,1.036E4,8.95E2,5.87E2,3.2099E4,1.276E3,1.397E3,1.4414E4,1.669E3,2.8317E4,2.1145E4,6.2E2,5.942E3,4.381E3,2.183E3,4.53E2],"tree_param":{"num_deleted":"0","num_feature":"101","num_nodes":"63","size_leaf_vector":"1"}},{"base_weights":[-1.0708327E-3,-2.3001365E-1,2.85177E-1,-3.652574E-1,-4.8259214E-2,1.1922975E-1,6.572143E-1,-3.0642968E-1,-6.183538E-1,-9.914891E-2,5.4204017E-1,5.0002627E-2,6.242548E-1,5.5242896E-1,1.6980984E0,-2.0098573E-1,-4.3314087E-1,-3.8541666E-1,-7.3693734E-1,2.0005117E-1,-1.8397777E-1,3.45391E-1,2.0388227E0,-1.5131794E-1,1.714305E-1,5.203006E-1,1.7433361E0,4.1133326E-1,1.134186E0,1.3685675E0,3.019284E0,-1.828825E-2,-2.1821742E-3,-3.2830782E-2,-1.6997961E-2,-4.6903487E-2,-1.2245624E-2,-9.021457E-2,-3.588609E-2,8.648522E-3,1.18268274E-1,-1.3209755E-2,9.030002E-3,2.306105E-2,-9.502076E-2,1.6159767E-1,-1.7333483E-2,